{"learner":{"attributes":{"scikit_learn":"{\"_estimator_type\": \"classifier\"}"},"feature_names":["elo_diff","elo_a","elo_b","form_win_a","form_draw_a","form_gf_a","form_ga_a","form_win_b","form_draw_b","form_gf_b","form_ga_b","h2h_win_rate","h2h_draw_rate","h2h_games","stage_importance","neutral"],"feature_types":["float","float","float","float","float","float","float","float","float","float","float","float","float","int","int","int"],"gradient_booster":{"model":{"cats":{"enc":[],"feature_segments":[],"sorted_idx":[]},"gbtree_model_param":{"num_parallel_tree":"1","num_trees":"300"},"iteration_indptr":[0,1,2,3,4,5,6,7,8,9,10,11,12,13,14,15,16,17,18,19,20,21,22,23,24,25,26,27,28,29,30,31,32,33,34,35,36,37,38,39,40,41,42,43,44,45,46,47,48,49,50,51,52,53,54,55,56,57,58,59,60,61,62,63,64,65,66,67,68,69,70,71,72,73,74,75,76,77,78,79,80,81,82,83,84,85,86,87,88,89,90,91,92,93,94,95,96,97,98,99,100,101,102,103,104,105,106,107,108,109,110,111,112,113,114,115,116,117,118,119,120,121,122,123,124,125,126,127,128,129,130,131,132,133,134,135,136,137,138,139,140,141,142,143,144,145,146,147,148,149,150,151,152,153,154,155,156,157,158,159,160,161,162,163,164,165,166,167,168,169,170,171,172,173,174,175,176,177,178,179,180,181,182,183,184,185,186,187,188,189,190,191,192,193,194,195,196,197,198,199,200,201,202,203,204,205,206,207,208,209,210,211,212,213,214,215,216,217,218,219,220,221,222,223,224,225,226,227,228,229,230,231,232,233,234,235,236,237,238,239,240,241,242,243,244,245,246,247,248,249,250,251,252,253,254,255,256,257,258,259,260,261,262,263,264,265,266,267,268,269,270,271,272,273,274,275,276,277,278,279,280,281,282,283,284,285,286,287,288,289,290,291,292,293,294,295,296,297,298,299,300],"tree_info":[0,0,0,0,0,0,0,0,0,0,0,0,0,0,0,0,0,0,0,0,0,0,0,0,0,0,0,0,0,0,0,0,0,0,0,0,0,0,0,0,0,0,0,0,0,0,0,0,0,0,0,0,0,0,0,0,0,0,0,0,0,0,0,0,0,0,0,0,0,0,0,0,0,0,0,0,0,0,0,0,0,0,0,0,0,0,0,0,0,0,0,0,0,0,0,0,0,0,0,0,0,0,0,0,0,0,0,0,0,0,0,0,0,0,0,0,0,0,0,0,0,0,0,0,0,0,0,0,0,0,0,0,0,0,0,0,0,0,0,0,0,0,0,0,0,0,0,0,0,0,0,0,0,0,0,0,0,0,0,0,0,0,0,0,0,0,0,0,0,0,0,0,0,0,0,0,0,0,0,0,0,0,0,0,0,0,0,0,0,0,0,0,0,0,0,0,0,0,0,0,0,0,0,0,0,0,0,0,0,0,0,0,0,0,0,0,0,0,0,0,0,0,0,0,0,0,0,0,0,0,0,0,0,0,0,0,0,0,0,0,0,0,0,0,0,0,0,0,0,0,0,0,0,0,0,0,0,0,0,0,0,0,0,0,0,0,0,0,0,0,0,0,0,0,0,0,0,0,0,0,0,0,0,0,0,0,0,0,0,0,0,0,0,0,0,0,0,0,0,0],"trees":[{"base_weights":[6.9839493E-3,-4.0739718E-1,1.8768199E-1,-6.0455337E-2,-6.0915E-1,2.669557E-1,-2.5149965E-1,-1.9447456E-1,5.9299636E-1,-9.2086226E-1,-4.4479796E-1,3.4404874E-1,4.1425087E-2,-4.2998773E-1,1.8952632E-1,-5.5200886E-4,-3.8904008E-2,4.0671073E-2,-1.0024773E-2,-4.7706623E-2,1.3783683E-2,-1.0903409E-2,-3.2043766E-2,6.0553537E-3,2.2428038E-2,-4.3689436E-3,3.4823388E-2,-1.2767255E-2,-5.2443076E-2,2.9789919E-2,-2.2192186E-2],"categories":[],"categories_nodes":[],"categories_segments":[],"categories_sizes":[],"default_left":[0,0,0,0,0,0,0,0,0,0,0,0,0,0,0,0,0,0,0,0,0,0,0,0,0,0,0,0,0,0,0],"id":0,"left_children":[1,3,5,7,9,11,13,15,17,19,21,23,25,27,29,-1,-1,-1,-1,-1,-1,-1,-1,-1,-1,-1,-1,-1,-1,-1,-1],"loss_changes":[5.8325226E1,1.6501423E1,1.8983658E1,7.9355035E0,7.039299E0,7.979496E0,6.7111526E0,7.9821444E0,2.9479284E0,2.3919525E0,4.2681274E0,7.9042816E0,1.0125882E1,6.0881577E0,6.8700047E0,0E0,0E0,0E0,0E0,0E0,0E0,0E0,0E0,0E0,0E0,0E0,0E0,0E0,0E0,0E0,0E0],"parents":[2147483647,0,0,1,1,2,2,3,3,4,4,5,5,6,6,7,7,8,8,9,9,10,10,11,11,12,12,13,13,14,14],"right_children":[2,4,6,8,10,12,14,16,18,20,22,24,26,28,30,-1,-1,-1,-1,-1,-1,-1,-1,-1,-1,-1,-1,-1,-1,-1,-1],"split_conditions":[1.4866486E3,1.4832637E3,2E0,1.4675647E3,6.25E-1,1.6357794E3,1.4700204E3,3E0,1.4689458E3,2.1E0,1.4285715E0,1.5321395E3,8E0,3.4444444E0,1.2857143E0,-5.5200886E-4,-3.8904008E-2,4.0671073E-2,-1.0024773E-2,-4.7706623E-2,1.3783683E-2,-1.0903409E-2,-3.2043766E-2,6.0553537E-3,2.2428038E-2,-4.3689436E-3,3.4823388E-2,-1.2767255E-2,-5.2443076E-2,2.9789919E-2,-2.2192186E-2],"split_indices":[2,1,6,1,9,1,1,10,2,6,5,2,13,6,5,0,0,0,0,0,0,0,0,0,0,0,0,0,0,0,0],"split_type":[0,0,0,0,0,0,0,0,0,0,0,0,0,0,0,0,0,0,0,0,0,0,0,0,0,0,0,0,0,0,0],"sum_hessian":[7.7590656E2,2.3503552E2,5.4087103E2,8.713844E1,1.4789708E2,4.5866818E2,8.2202866E1,7.318268E1,1.3955767E1,4.8674988E1,9.922209E1,3.412355E2,1.1743267E2,5.8546143E1,2.3656725E1,5.684422E1,1.6338459E1,1.0892305E1,3.0634608E0,4.7653835E1,1.0211537E0,4.7483643E1,5.173845E1,1.0994421E2,2.3129129E2,9.922209E1,1.8210573E1,4.731345E1,1.123269E1,1.4466343E1,9.190383E0],"tree_param":{"num_deleted":"0","num_feature":"16","num_nodes":"31","size_leaf_vector":"1"}},{"base_weights":[-1.4887354E-2,-4.059476E-1,1.3012445E-1,-2.4813434E-2,-6.6985667E-1,-5.760191E-1,1.7665073E-1,-9.6861154E-2,1.3115479E0,-7.390547E-1,2.6887965E-1,-6.8776727E-1,3.274784E-1,2.5227633E-1,-5.8703013E-2,-1.8862443E-2,5.1248185E-3,1.3362612E-2,7.5065106E-2,-3.8013898E-2,3.354363E-2,-9.433995E-3,5.1172074E-2,-5.2762408E-2,-1.996831E-2,4.7346856E-2,-3.0563861E-2,1.685523E-2,-4.9810107E-3,-1.2345678E-2,2.275016E-2],"categories":[],"categories_nodes":[],"categories_segments":[],"categories_sizes":[],"default_left":[0,0,0,0,0,0,0,0,0,0,0,0,0,0,0,0,0,0,0,0,0,0,0,0,0,0,0,0,0,0,0],"id":1,"left_children":[1,3,5,7,9,11,13,15,17,19,21,23,25,27,29,-1,-1,-1,-1,-1,-1,-1,-1,-1,-1,-1,-1,-1,-1,-1,-1],"loss_changes":[4.4203888E1,2.1182953E1,1.8838547E1,8.646207E0,8.38699E0,3.9230251E0,9.539974E0,4.793973E0,3.0884743E-1,4.247406E0,3.6209812E0,2.768259E0,3.7320666E0,1.2139467E1,1.2859228E1,0E0,0E0,0E0,0E0,0E0,0E0,0E0,0E0,0E0,0E0,0E0,0E0,0E0,0E0,0E0,0E0],"parents":[2147483647,0,0,1,1,2,2,3,3,4,4,5,5,6,6,7,7,8,8,9,9,10,10,11,11,12,12,13,13,14,14],"right_children":[2,4,6,8,10,12,14,16,18,20,22,24,26,28,30,-1,-1,-1,-1,-1,-1,-1,-1,-1,-1,-1,-1,-1,-1,-1,-1],"split_conditions":[3E-1,4.623273E1,-2.2527135E2,1.5667244E3,5E-1,6E0,5.7111805E1,1.1111111E-1,2E-1,3E0,1.4969952E2,-3.1174423E2,3E-1,1.8571428E0,3E-1,-1.8862443E-2,5.1248185E-3,1.3362612E-2,7.5065106E-2,-3.8013898E-2,3.354363E-2,-9.433995E-3,5.1172074E-2,-5.2762408E-2,-1.996831E-2,4.7346856E-2,-3.0563861E-2,1.685523E-2,-4.9810107E-3,-1.2345678E-2,2.275016E-2],"split_indices":[7,0,0,1,8,13,0,3,12,14,0,0,12,6,12,0,0,0,0,0,0,0,0,0,0,0,0,0,0,0,0],"split_type":[0,0,0,0,0,0,0,0,0,0,0,0,0,0,0,0,0,0,0,0,0,0,0,0,0,0,0,0,0,0,0],"sum_hessian":[7.7659796E2,2.0934589E2,5.672521E2,8.632191E1,1.2302397E2,3.4009453E1,5.332426E2,8.322618E1,3.0957243E0,1.1487514E2,8.148834E0,3.0584766E1,3.4246864E0,4.0348425E2,1.2975839E2,3.402833E1,4.9197853E1,1.0315114E0,2.064213E0,1.1385249E2,1.0226423E0,5.773038E0,2.3757968E0,1.1694801E1,1.8889967E1,2.0553472E0,1.3693392E0,3.2516336E2,7.83209E1,9.553538E1,3.4223015E1],"tree_param":{"num_deleted":"0","num_feature":"16","num_nodes":"31","size_leaf_vector":"1"}},{"base_weights":[-1.1629096E-2,-4.0883854E-1,1.6770652E-1,-9.647898E-2,-6.012757E-1,2.4877407E-1,-2.6811993E-1,9.8828673E-1,-1.8028843E-1,-8.3220565E-1,-3.2269558E-1,3.4417245E-1,-1.8032612E-3,-5.867741E-1,8.524871E-2,6.347833E-2,-9.177579E-3,-3.1013207E-3,-2.7170023E-2,-1.8778944E-2,-4.5539107E-2,-2.288231E-3,-2.6388139E-2,-4.849953E-3,2.0754768E-2,9.1366945E-3,-1.8602384E-2,-3.1940334E-2,8.761103E-3,-3.2973908E-2,1.4764673E-2],"categories":[],"categories_nodes":[],"categories_segments":[],"categories_sizes":[],"default_left":[0,0,0,0,0,0,0,0,0,0,0,0,0,0,0,0,0,0,0,0,0,0,0,0,0,0,0,0,0,0,0],"id":2,"left_children":[1,3,5,7,9,11,13,15,17,19,21,23,25,27,29,-1,-1,-1,-1,-1,-1,-1,-1,-1,-1,-1,-1,-1,-1,-1,-1],"loss_changes":[5.5954754E1,1.4599033E1,1.9222923E1,8.897346E0,9.304642E0,1.0928591E1,9.714733E0,2.669856E0,3.7879183E0,2.4130478E0,3.9868298E0,1.04200325E1,8.816092E0,1.9602356E0,6.8467875E0,0E0,0E0,0E0,0E0,0E0,0E0,0E0,0E0,0E0,0E0,0E0,0E0,0E0,0E0,0E0,0E0],"parents":[2147483647,0,0,1,1,2,2,3,3,4,4,5,5,6,6,7,7,8,8,9,9,10,10,11,11,12,12,13,13,14,14],"right_children":[2,4,6,8,10,12,14,16,18,20,22,24,26,28,30,-1,-1,-1,-1,-1,-1,-1,-1,-1,-1,-1,-1,-1,-1,-1,-1],"split_conditions":[1.4902043E3,4.623273E1,2E0,1.3788339E3,8.5714287E-1,4.1748363E1,1.1111111E-1,3.625E0,1.4815026E3,2.2222222E-1,1.4285715E0,9E-1,2.1E0,1E0,-2.184819E2,6.347833E-2,-9.177579E-3,-3.1013207E-3,-2.7170023E-2,-1.8778944E-2,-4.5539107E-2,-2.288231E-3,-2.6388139E-2,-4.849953E-3,2.0754768E-2,9.1366945E-3,-1.8602384E-2,-3.1940334E-2,8.761103E-3,-3.2973908E-2,1.4764673E-2],"split_indices":[2,0,6,2,9,0,4,6,2,3,5,5,5,7,0,0,0,0,0,0,0,0,0,0,0,0,0,0,0,0,0],"split_type":[0,0,0,0,0,0,0,0,0,0,0,0,0,0,0,0,0,0,0,0,0,0,0,0,0,0,0,0,0,0,0],"sum_hessian":[7.8256464E2,2.4282135E2,5.397433E2,9.3426155E1,1.493952E2,4.5563495E2,8.4108315E1,5.539463E0,8.7886696E1,8.005355E1,6.934165E1,3.2959366E2,1.260413E2,4.370556E1,4.0402752E1,4.3663087E0,1.173154E0,6.761981E1,2.026688E1,1.30260105E1,6.7027534E1,3.028216E1,3.905949E1,4.557093E1,2.8402274E2,8.462313E1,4.1418167E1,4.113891E1,2.566651E0,8.182309E0,3.2220444E1],"tree_param":{"num_deleted":"0","num_feature":"16","num_nodes":"31","size_leaf_vector":"1"}},{"base_weights":[7.838976E-4,-3.856524E-1,1.6618028E-1,-4.5203004E-2,-5.875076E-1,-4.891134E-1,2.094172E-1,6.509472E-2,-5.4140544E-1,-6.20392E-1,5.8468914E-1,-7.048119E-1,-5.2693654E-2,1.0065266E-1,4.3076885E-1,1.7253255E-2,-1.2948709E-2,-3.3866193E-2,2.3854176E-2,-3.4374382E-2,-4.1971174E-3,-9.89345E-3,6.649335E-2,-1.46628935E-2,-4.6237048E-2,-1.6863674E-2,3.70855E-2,1.3792221E-2,-3.9753807E-3,1.3399822E-2,4.191762E-2],"categories":[],"categories_nodes":[],"categories_segments":[],"categories_sizes":[],"default_left":[0,0,0,0,0,0,0,0,0,0,0,0,0,0,0,0,0,0,0,0,0,0,0,0,0,0,0,0,0,0,0],"id":3,"left_children":[1,3,5,7,9,11,13,15,17,19,21,23,25,27,29,-1,-1,-1,-1,-1,-1,-1,-1,-1,-1,-1,-1,-1,-1,-1,-1],"loss_changes":[5.030666E1,1.6172089E1,1.576996E1,4.9475822E0,6.2480392E0,3.1981297E0,1.2408514E1,6.8941813E0,2.7585006E0,5.120369E0,3.1997204E0,1.676033E0,3.3264492E0,1.1059677E1,1.0957636E1,0E0,0E0,0E0,0E0,0E0,0E0,0E0,0E0,0E0,0E0,0E0,0E0,0E0,0E0,0E0,0E0],"parents":[2147483647,0,0,1,1,2,2,3,3,4,4,5,5,6,6,7,7,8,8,9,9,10,10,11,11,12,12,13,13,14,14],"right_children":[2,4,6,8,10,12,14,16,18,20,22,24,26,28,30,-1,-1,-1,-1,-1,-1,-1,-1,-1,-1,-1,-1,-1,-1,-1,-1],"split_conditions":[1.4866486E3,4.623273E1,-2.2527135E2,1.4797805E3,5E-1,3E0,1.6051482E3,2.1666667E0,2E0,4E0,1.2222222E0,1.6672831E3,2.2222222E-1,2.2E-1,1.1E0,1.7253255E-2,-1.2948709E-2,-3.3866193E-2,2.3854176E-2,-3.4374382E-2,-4.1971174E-3,-9.89345E-3,6.649335E-2,-1.46628935E-2,-4.6237048E-2,-1.6863674E-2,3.70855E-2,1.3792221E-2,-3.9753807E-3,1.3399822E-2,4.191762E-2],"split_indices":[2,0,0,2,8,13,2,6,14,13,6,2,3,8,10,0,0,0,0,0,0,0,0,0,0,0,0,0,0,0,0],"split_type":[0,0,0,0,0,0,0,0,0,0,0,0,0,0,0,0,0,0,0,0,0,0,0,0,0,0,0,0,0,0,0],"sum_hessian":[7.840808E2,2.3440756E2,5.496733E2,8.793392E1,1.4647363E2,3.306563E1,5.1660767E2,7.300854E1,1.4925388E1,1.431635E2,3.3101442E0,2.1511295E1,1.15543375E1,3.4786227E2,1.6874538E2,3.911716E1,3.3891376E1,1.3611391E1,1.3139975E0,1.2687275E2,1.629074E1,2.1519485E0,1.1581957E0,8.710825E0,1.2800469E1,9.142405E0,2.4119332E0,1.7595912E2,1.7190314E2,1.223643E2,4.6381077E1],"tree_param":{"num_deleted":"0","num_feature":"16","num_nodes":"31","size_leaf_vector":"1"}},{"base_weights":[-8.7851025E-3,-3.1812456E-1,1.1608516E-1,1.4425291E-2,-5.070827E-1,-2.6440307E-1,1.9623587E-1,-1.0953203E-1,5.538229E-1,-3.6905763E-1,-9.693577E-1,-1.5327817E-1,-9.613019E-1,4.7143546E-1,1.22071244E-1,-2.8444503E-2,1.2933513E-3,-4.006091E-3,5.2251942E-2,-2.1403532E-2,3.361596E-2,-1.4954719E-2,-5.4824032E-2,7.947388E-3,-1.4706445E-2,1.4139347E-2,-5.4984536E-2,1.92375E-2,6.044848E-2,1.3442051E-3,2.2773035E-2],"categories":[],"categories_nodes":[],"categories_segments":[],"categories_sizes":[],"default_left":[0,0,0,0,0,0,0,0,0,0,0,0,0,0,0,0,0,0,0,0,0,0,0,0,0,0,0,0,0,0,0],"id":4,"left_children":[1,3,5,7,9,11,13,15,17,19,21,23,25,27,29,-1,-1,-1,-1,-1,-1,-1,-1,-1,-1,-1,-1,-1,-1,-1,-1],"loss_changes":[3.0280552E1,1.417639E1,1.7111721E1,5.6497703E0,8.637959E0,7.3549695E0,9.347769E0,4.304597E0,5.0405273E0,7.3853607E0,2.246502E0,3.859101E0,2.7337923E0,5.542162E0,1.1600473E1,0E0,0E0,0E0,0E0,0E0,0E0,0E0,0E0,0E0,0E0,0E0,0E0,0E0,0E0,0E0,0E0],"parents":[2147483647,0,0,1,1,2,2,3,3,4,4,5,5,6,6,7,7,8,8,9,9,10,10,11,11,12,12,13,13,14,14],"right_children":[2,4,6,8,10,12,14,16,18,20,22,24,26,28,30,-1,-1,-1,-1,-1,-1,-1,-1,-1,-1,-1,-1,-1,-1,-1,-1],"split_conditions":[1.4866486E3,1.4832637E3,9E-1,1.4675647E3,2.6666667E0,3.4444444E0,1.2E0,1E-1,1.1111111E-1,5E-1,1.5019113E3,1.5258578E3,3.3333334E-1,9E0,3E-1,-2.8444503E-2,1.2933513E-3,-4.006091E-3,5.2251942E-2,-2.1403532E-2,3.361596E-2,-1.4954719E-2,-5.4824032E-2,7.947388E-3,-1.4706445E-2,1.4139347E-2,-5.4984536E-2,1.92375E-2,6.044848E-2,1.3442051E-3,2.2773035E-2],"split_indices":[2,1,5,1,10,6,5,7,4,8,1,2,10,13,12,0,0,0,0,0,0,0,0,0,0,0,0,0,0,0,0],"split_type":[0,0,0,0,0,0,0,0,0,0,0,0,0,0,0,0,0,0,0,0,0,0,0,0,0,0,0,0,0,0,0],"sum_hessian":[7.8098175E2,2.2392754E2,5.570542E2,8.163773E1,1.4228981E2,9.632687E1,4.6072736E2,6.735458E1,1.4283149E1,1.11650856E2,3.0638948E1,8.46576E1,1.1669273E1,9.60996E1,3.6462775E2,1.4240287E1,5.31143E1,6.7836995E0,7.499449E0,1.06499146E2,5.1517134E0,5.6863775E0,2.4952572E1,2.6258116E1,5.8399483E1,1.0114441E0,1.0657829E1,8.803498E1,8.064616E0,2.8490463E2,7.972312E1],"tree_param":{"num_deleted":"0","num_feature":"16","num_nodes":"31","size_leaf_vector":"1"}},{"base_weights":[8.152597E-3,-2.9479003E-1,1.9458595E-1,-7.388279E-2,-4.849115E-1,2.764369E-1,-2.8104153E-1,9.8886096E-1,-1.2858602E-1,-4.0781632E-1,-8.187077E-1,3.350306E-1,-2.9480484E-1,-3.9092016E-1,6.243342E-1,-2.6219832E-3,6.6824876E-2,-3.3227485E-3,-3.8132783E-2,-1.1929419E-2,-2.76449E-2,8.446171E-3,-4.3648135E-2,2.1939293E-2,4.099664E-3,2.0162908E-2,-2.2101315E-2,1.7191922E-2,-3.0030278E-2,-1.5148153E-2,7.023084E-2],"categories":[],"categories_nodes":[],"categories_segments":[],"categories_sizes":[],"default_left":[0,0,0,0,0,0,0,0,0,0,0,0,0,0,0,0,0,0,0,0,0,0,0,0,0,0,0,0,0,0,0],"id":5,"left_children":[1,3,5,7,9,11,13,15,17,19,21,23,25,27,29,-1,-1,-1,-1,-1,-1,-1,-1,-1,-1,-1,-1,-1,-1,-1,-1],"loss_changes":[4.4175953E1,1.2461737E1,1.8964956E1,8.306826E0,3.6137123E0,1.3999378E1,7.5117617E0,2.641573E0,5.2068853E0,3.0644875E0,1.7489071E0,9.818295E0,4.3058357E0,1.0320752E1,6.681059E0,0E0,0E0,0E0,0E0,0E0,0E0,0E0,0E0,0E0,0E0,0E0,0E0,0E0,0E0,0E0,0E0],"parents":[2147483647,0,0,1,1,2,2,3,3,4,4,5,5,6,6,7,7,8,8,9,9,10,10,11,11,12,12,13,13,14,14],"right_children":[2,4,6,8,10,12,14,16,18,20,22,24,26,28,30,-1,-1,-1,-1,-1,-1,-1,-1,-1,-1,-1,-1,-1,-1,-1,-1],"split_conditions":[1.5038083E3,4.623273E1,2E0,1.3788339E3,2.9E0,7.5E-1,5E0,1E-1,4.1E0,1.4285715E0,1.3975132E3,2E0,1.2222222E0,1.5269917E3,1.1E0,-2.6219832E-3,6.6824876E-2,-3.3227485E-3,-3.8132783E-2,-1.1929419E-2,-2.76449E-2,8.446171E-3,-4.3648135E-2,2.1939293E-2,4.099664E-3,2.0162908E-2,-2.2101315E-2,1.7191922E-2,-3.0030278E-2,-1.5148153E-2,7.023084E-2],"split_indices":[2,0,6,2,10,11,13,7,6,5,1,14,5,2,5,0,0,0,0,0,0,0,0,0,0,0,0,0,0,0,0],"split_type":[0,0,0,0,0,0,0,0,0,0,0,0,0,0,0,0,0,0,0,0,0,0,0,0,0,0,0,0,0,0,0],"sum_hessian":[7.7914795E2,2.9649316E2,4.826548E2,1.3810646E2,1.583867E2,4.1232568E2,7.032912E1,5.5068684E0,1.325996E2,1.3137608E2,2.7010626E1,3.745295E2,3.7796154E1,6.347765E1,6.8514695E0,1.6971134E0,3.809755E0,1.22275314E2,1.0324272E1,6.2472694E1,6.890338E1,1.2414572E0,2.5769169E1,2.6483542E2,1.0969409E2,6.1285286E0,3.1667625E1,1.3880237E1,4.9597416E1,3.5500896E0,3.3013797E0],"tree_param":{"num_deleted":"0","num_feature":"16","num_nodes":"31","size_leaf_vector":"1"}},{"base_weights":[-5.5317716E-3,1.3577095E-1,-3.247179E-1,2.0941219E-1,-2.9862982E-1,-1.8498127E-1,-7.3573095E-1,-5.826708E-2,2.7372E-1,-3.5714576E-1,6.328525E-1,-4.1401513E-2,-5.4542863E-1,-5.249573E-1,-9.689606E-1,6.4738556E-3,-1.690137E-2,2.3279473E-2,9.243588E-3,-7.74689E-3,-2.8582022E-2,-5.5990117E-3,5.494952E-2,1.940105E-2,-8.980913E-3,-3.251239E-2,1.0651158E-2,6.8248487E-3,-3.20171E-2,-6.8238676E-3,-4.9820296E-2],"categories":[],"categories_nodes":[],"categories_segments":[],"categories_sizes":[],"default_left":[0,0,0,0,0,0,0,0,0,0,0,0,0,0,0,0,0,0,0,0,0,0,0,0,0,0,0,0,0,0,0],"id":6,"left_children":[1,3,5,7,9,11,13,15,17,19,21,23,25,27,29,-1,-1,-1,-1,-1,-1,-1,-1,-1,-1,-1,-1,-1,-1,-1,-1],"loss_changes":[3.5102154E1,1.7352547E1,1.3511702E1,7.979946E0,4.6352615E0,9.293274E0,2.1908417E0,4.832934E0,6.2281895E0,3.1253128E0,1.9900036E0,7.850635E0,4.279496E0,2.789919E0,4.0721703E-1,0E0,0E0,0E0,0E0,0E0,0E0,0E0,0E0,0E0,0E0,0E0,0E0,0E0,0E0,0E0,0E0],"parents":[2147483647,0,0,1,1,2,2,3,3,4,4,5,5,6,6,7,7,8,8,9,9,10,10,11,11,12,12,13,13,14,14],"right_children":[2,4,6,8,10,12,14,16,18,20,22,24,26,28,30,-1,-1,-1,-1,-1,-1,-1,-1,-1,-1,-1,-1,-1,-1,-1,-1],"split_conditions":[5.410129E1,2.4E0,2.1666667E0,9E-1,1.4854695E3,2.1E0,2.9E0,1.4722947E3,-7.2832535E1,-7.66273E1,1.2222222E0,1.1E0,1.8132777E3,8.2044975E1,1.3975132E3,6.4738556E-3,-1.690137E-2,2.3279473E-2,9.243588E-3,-7.74689E-3,-2.8582022E-2,-5.5990117E-3,5.494952E-2,1.940105E-2,-8.980913E-3,-3.251239E-2,1.0651158E-2,6.8248487E-3,-3.20171E-2,-6.8238676E-3,-4.9820296E-2],"split_indices":[0,6,10,5,1,5,10,1,0,0,10,10,1,0,1,0,0,0,0,0,0,0,0,0,0,0,0,0,0,0,0],"split_type":[0,0,0,0,0,0,0,0,0,0,0,0,0,0,0,0,0,0,0,0,0,0,0,0,0,0,0,0,0,0,0],"sum_hessian":[7.753197E2,5.3800745E2,2.3731229E2,4.6068695E2,7.732047E1,1.7872446E2,5.858783E1,8.9265E1,3.7142194E2,7.36205E1,3.699979E0,1.29008E2,4.9716454E1,3.333691E1,2.525092E1,5.3899437E1,3.5365562E1,1.15543365E2,2.5587857E2,3.9225468E1,3.439503E1,1.8629162E0,1.837063E0,3.0752558E1,9.825544E1,4.386785E1,5.848603E0,4.910801E0,2.842611E1,1.0918387E0,2.415908E1],"tree_param":{"num_deleted":"0","num_feature":"16","num_nodes":"31","size_leaf_vector":"1"}},{"base_weights":[2.7384691E-2,1.5910831E-1,-2.4477209E-1,-1.3775377E-1,2.6284838E-1,-1.1571873E-1,-6.57579E-1,-9.159117E-1,-8.370653E-2,3.5677078E-1,1.01499945E-1,-2.0879588E-1,2.824251E-1,1.3174477E-1,-6.984136E-1,-4.9915146E-2,-6.8964735E-3,6.025796E-4,-2.7723042E-2,3.0905271E-2,1.3091559E-2,1.6079359E-2,-3.244574E-3,-5.298551E-3,-2.343637E-2,2.70672E-2,-5.64699E-3,-2.5800068E-2,2.9556563E-2,-3.7329588E-2,-1.2844505E-2],"categories":[],"categories_nodes":[],"categories_segments":[],"categories_sizes":[],"default_left":[0,0,0,0,0,0,0,0,0,0,0,0,0,0,0,0,0,0,0,0,0,0,0,0,0,0,0,0,0,0,0],"id":7,"left_children":[1,3,5,7,9,11,13,15,17,19,21,23,25,27,29,-1,-1,-1,-1,-1,-1,-1,-1,-1,-1,-1,-1,-1,-1,-1,-1],"loss_changes":[2.8446075E1,1.6515217E1,1.3675932E1,5.7477837E0,5.9559364E0,7.463818E0,2.1147747E0,3.640914E-1,5.960283E0,5.9621124E0,5.4519076E0,4.2599645E0,4.0173407E0,1.7307272E0,9.577923E-1,0E0,0E0,0E0,0E0,0E0,0E0,0E0,0E0,0E0,0E0,0E0,0E0,0E0,0E0,0E0,0E0],"parents":[2147483647,0,0,1,1,2,2,3,3,4,4,5,5,6,6,7,7,8,8,9,9,10,10,11,11,12,12,13,13,14,14],"right_children":[2,4,6,8,10,12,14,16,18,20,22,24,26,28,30,-1,-1,-1,-1,-1,-1,-1,-1,-1,-1,-1,-1,-1,-1,-1,-1],"split_conditions":[4.623273E1,9E-1,2.1666667E0,-3.1174423E2,1.75E0,4E-1,6.25E-1,2.4285715E0,1E0,1E0,1.5E0,2.1E0,1.3333334E0,1.4285715E0,1.8333334E0,-4.9915146E-2,-6.8964735E-3,6.025796E-4,-2.7723042E-2,3.0905271E-2,1.3091559E-2,1.6079359E-2,-3.244574E-3,-5.298551E-3,-2.343637E-2,2.70672E-2,-5.64699E-3,-2.5800068E-2,2.9556563E-2,-3.7329588E-2,-1.2844505E-2],"split_indices":[0,5,10,0,9,12,5,9,15,6,5,5,10,6,6,0,0,0,0,0,0,0,0,0,0,0,0,0,0,0,0],"split_type":[0,0,0,0,0,0,0,0,0,0,0,0,0,0,0,0,0,0,0,0,0,0,0,0,0,0,0,0,0,0,0],"sum_hessian":[7.90357E2,5.330058E2,2.5735123E2,1.3790001E2,3.9510577E2,1.9752168E2,5.982954E1,7.4024024E0,1.304976E2,2.4858525E2,1.4652054E2,1.6067323E2,3.684845E1,2.7786856E0,5.7050854E1,6.3094187E0,1.0929837E0,1.09654015E2,2.0843588E1,6.404011E1,1.8454514E2,6.2479435E1,8.404111E1,1.1664272E2,4.4030506E1,2.1931793E1,1.4916658E1,1.0762652E0,1.7024204E0,5.050359E1,6.5472646E0],"tree_param":{"num_deleted":"0","num_feature":"16","num_nodes":"31","size_leaf_vector":"1"}},{"base_weights":[-9.049413E-3,-2.788538E-1,1.0441819E-1,5.008043E-3,-4.4973624E-1,-9.276352E-2,1.9433492E-1,-1.4761762E-1,7.115908E-1,-7.4185866E-1,-2.5245175E-1,-5.1475775E-1,5.4130707E-2,1.070741E-1,4.3936437E-1,-1.8805157E-3,-3.467644E-2,8.308779E-2,1.3814193E-2,-3.8912844E-2,7.997088E-3,-2.06216E-2,3.6594027E-3,-1.9289926E-2,-5.0386865E-2,1.0730548E-2,-2.1260245E-2,7.0668086E-3,-4.4092625E-2,1.6881581E-2,4.3731302E-2],"categories":[],"categories_nodes":[],"categories_segments":[],"categories_sizes":[],"default_left":[0,0,0,0,0,0,0,0,0,0,0,0,0,0,0,0,0,0,0,0,0,0,0,0,0,0,0,0,0,0,0],"id":8,"left_children":[1,3,5,7,9,11,13,15,17,19,21,23,25,27,29,-1,-1,-1,-1,-1,-1,-1,-1,-1,-1,-1,-1,-1,-1,-1,-1],"loss_changes":[2.3999954E1,1.1260647E1,9.813084E0,9.722344E0,8.068871E0,1.0820443E1,8.045175E0,4.4156637E0,5.9343233E0,2.078354E0,4.668956E0,2.28028E0,1.016316E1,9.737668E0,3.9493523E0,0E0,0E0,0E0,0E0,0E0,0E0,0E0,0E0,0E0,0E0,0E0,0E0,0E0,0E0,0E0,0E0],"parents":[2147483647,0,0,1,1,2,2,3,3,4,4,5,5,6,6,7,7,8,8,9,9,10,10,11,11,12,12,13,13,14,14],"right_children":[2,4,6,8,10,12,14,16,18,20,22,24,26,28,30,-1,-1,-1,-1,-1,-1,-1,-1,-1,-1,-1,-1,-1,-1,-1,-1],"split_conditions":[1.4902043E3,1.4832637E3,1.1111111E-1,1.4675647E3,8E-1,1.4631382E3,3E0,3.625E0,1E-1,3.5555556E0,7.5E-1,3.4444444E0,2.1E0,1.7635862E3,2.1E0,-1.8805157E-3,-3.467644E-2,8.308779E-2,1.3814193E-2,-3.8912844E-2,7.997088E-3,-2.06216E-2,3.6594027E-3,-1.9289926E-2,-5.0386865E-2,1.0730548E-2,-2.1260245E-2,7.0668086E-3,-4.4092625E-2,1.6881581E-2,4.3731302E-2],"split_indices":[2,1,4,1,9,1,13,6,8,5,11,6,9,2,9,0,0,0,0,0,0,0,0,0,0,0,0,0,0,0,0],"split_type":[0,0,0,0,0,0,0,0,0,0,0,0,0,0,0,0,0,0,0,0,0,0,0,0,0,0,0,0,0,0,0],"sum_hessian":[7.810254E2,2.3057516E2,5.5045026E2,8.7191986E1,1.4338318E2,1.7238136E2,3.7806888E2,7.267946E1,1.4512528E1,5.613001E1,8.725317E1,4.3541103E1,1.2884026E2,2.8037582E2,9.7693054E1,6.1824467E1,1.0854991E1,3.231918E0,1.1280611E1,5.414992E1,1.980087E0,5.8240833E1,2.901233E1,3.6632286E1,6.908818E0,9.7144844E1,3.1695415E1,2.7222986E2,8.145981E0,8.13442E1,1.6348852E1],"tree_param":{"num_deleted":"0","num_feature":"16","num_nodes":"31","size_leaf_vector":"1"}},{"base_weights":[-2.1969644E-2,-2.4814835E-1,1.0993522E-1,-4.624466E-1,-1.3316044E-1,-6.7667717E-1,1.3513225E-1,1.9574182E-1,-5.862915E-1,-7.561925E-2,-5.9725094E-1,-8.395072E-1,3.372852E-2,1.8843843E-1,-2.5329885E-1,3.55377E-2,-1.3483182E-2,-3.2099687E-2,-4.0010074E-3,-5.717221E-3,4.1929193E-2,2.9084487E-2,-3.5545163E-2,-2.4935391E-3,-4.6981454E-2,2.3556037E-2,6.906961E-3,-2.1490004E-2,8.319087E-3],"categories":[],"categories_nodes":[],"categories_segments":[],"categories_sizes":[],"default_left":[0,0,0,0,0,0,0,0,0,0,0,0,0,0,0,0,0,0,0,0,0,0,0,0,0,0,0,0,0],"id":9,"left_children":[1,3,5,7,9,11,13,15,17,19,21,23,-1,25,27,-1,-1,-1,-1,-1,-1,-1,-1,-1,-1,-1,-1,-1,-1],"loss_changes":[2.3443666E1,7.0393314E0,9.97822E0,8.36084E0,5.01829E0,4.2951536E0,1.0059109E1,4.370229E0,2.3178654E0,6.203547E0,3.40618E0,1.0875158E0,0E0,5.9454165E0,4.466338E0,0E0,0E0,0E0,0E0,0E0,0E0,0E0,0E0,0E0,0E0,0E0,0E0,0E0,0E0],"parents":[2147483647,0,0,1,1,2,2,3,3,4,4,5,5,6,6,7,7,8,8,9,9,10,10,11,11,13,13,14,14],"right_children":[2,4,6,8,10,12,14,16,18,20,22,24,-1,26,28,-1,-1,-1,-1,-1,-1,-1,-1,-1,-1,-1,-1,-1,-1],"split_conditions":[1.5038083E3,7.777778E-1,-2.9469183E2,-6.7579412E0,1.7142857E0,6E0,5.555556E-1,2.3E0,2.2222223E0,7.777778E-1,-9.204609E1,1E-1,3.372852E-2,7E-1,2E0,3.55377E-2,-1.3483182E-2,-3.2099687E-2,-4.0010074E-3,-5.717221E-3,4.1929193E-2,2.9084487E-2,-3.5545163E-2,-2.4935391E-3,-4.6981454E-2,2.3556037E-2,6.906961E-3,-2.1490004E-2,8.319087E-3],"split_indices":[2,9,0,0,9,13,11,6,6,3,0,8,0,6,14,0,0,0,0,0,0,0,0,0,0,0,0,0,0],"split_type":[0,0,0,0,0,0,0,0,0,0,0,0,0,0,0,0,0,0,0,0,0,0,0,0,0,0,0,0,0],"sum_hessian":[7.829302E2,2.8791583E2,4.9501434E2,9.895846E1,1.8895738E2,1.4160554E1,4.808538E2,1.5533422E1,8.342504E1,1.6966548E2,1.9291904E1,1.3144652E1,1.0159012E0,4.2350635E2,5.734742E1,6.9983616E0,8.535061E0,7.479377E1,8.631268E0,1.6402965E2,5.6358256E0,1.153118E0,1.8138786E1,1.7319942E0,1.1412658E1,6.2077934E1,3.6142844E2,4.03441E1,1.7003319E1],"tree_param":{"num_deleted":"0","num_feature":"16","num_nodes":"29","size_leaf_vector":"1"}},{"base_weights":[-1.4111502E-2,-1.5759921E-1,2.366254E-1,-1.0411224E-1,-7.148436E-1,-3.7153214E-1,3.4536606E-1,9.8391674E-2,-1.9882174E-1,-4.0134165E-1,-5.2858252E-2,-1.040478E-1,-6.875487E-1,5.408994E-1,2.757019E-2,1.7319273E-2,-3.1720828E-3,-7.1523315E-3,-3.3053182E-2,-3.4520622E-2,1.4235342E-2,2.89454E-3,-3.6652878E-2,-1.3316334E-3,-4.8265938E-2,3.8813245E-2,8.764455E-3,2.109359E-2,-1.1647775E-2],"categories":[],"categories_nodes":[],"categories_segments":[],"categories_sizes":[],"default_left":[0,0,0,0,0,0,0,0,0,0,0,0,0,0,0,0,0,0,0,0,0,0,0,0,0,0,0,0,0],"id":10,"left_children":[1,3,5,7,9,11,13,15,17,19,-1,21,23,25,27,-1,-1,-1,-1,-1,-1,-1,-1,-1,-1,-1,-1,-1,-1],"loss_changes":[2.7821163E1,1.4544935E1,1.880792E1,8.6682205E0,3.9579277E0,3.562953E0,1.4864546E1,5.8337874E0,7.7832994E0,5.205925E0,0E0,2.6390188E0,3.5664053E0,1.2551853E1,9.684093E0,0E0,0E0,0E0,0E0,0E0,0E0,0E0,0E0,0E0,0E0,0E0,0E0,0E0,0E0],"parents":[2147483647,0,0,1,1,2,2,3,3,4,4,5,5,6,6,7,7,8,8,9,9,11,11,12,12,13,13,14,14],"right_children":[2,4,6,8,10,12,14,16,18,20,-1,22,24,26,28,-1,-1,-1,-1,-1,-1,-1,-1,-1,-1,-1,-1,-1,-1],"split_conditions":[1.5713333E3,3E0,1.4600427E3,1.484097E3,1.5019113E3,2.1111112E0,1.8333334E0,1.7777778E0,1.5555556E0,1.4722947E3,-5.2858252E-2,1.2222222E0,1E-1,2E0,1.5639534E3,1.7319273E-2,-3.1720828E-3,-7.1523315E-3,-3.3053182E-2,-3.4520622E-2,1.4235342E-2,2.89454E-3,-3.6652878E-2,-1.3316334E-3,-4.8265938E-2,3.8813245E-2,8.764455E-3,2.109359E-2,-1.1647775E-2],"split_indices":[2,10,1,1,1,6,9,6,6,1,0,10,3,14,1,0,0,0,0,0,0,0,0,0,0,0,0,0,0],"split_type":[0,0,0,0,0,0,0,0,0,0,0,0,0,0,0,0,0,0,0,0,0,0,0,0,0,0,0,0,0],"sum_hessian":[7.702351E2,4.9024356E2,2.7999158E2,4.4893307E2,4.131049E1,4.1919876E1,2.380717E2,1.4303764E2,3.0589542E2,2.3263826E1,1.8046661E1,2.3783121E1,1.8136755E1,1.4673535E2,9.1336334E1,5.5807507E1,8.723013E1,2.7471225E2,3.1183186E1,1.6360632E1,6.9031944E0,1.9996872E1,3.7862484E0,5.853342E0,1.2283413E1,8.824312E1,5.8492237E1,3.596894E1,5.5367397E1],"tree_param":{"num_deleted":"0","num_feature":"16","num_nodes":"29","size_leaf_vector":"1"}},{"base_weights":[-2.9495535E-2,-2.9464528E-1,7.867657E-2,-1.0041631E-2,-4.663548E-1,-7.307218E-1,1.02003396E-1,-1.3568994E-1,4.9950355E-1,-5.286395E-1,1.2112634E-2,-9.4502056E-1,2.0932097E-2,3.4977564E-1,5.228393E-2,-4.6064887E-2,-1.4650534E-3,-1.5225528E-3,6.531023E-2,1.21513605E-2,-2.8043691E-2,-2.1068713E-2,3.931135E-2,-4.9895447E-2,-5.802943E-3,4.022996E-2,7.556719E-3,6.8891435E-3,-1.2383892E-2],"categories":[],"categories_nodes":[],"categories_segments":[],"categories_sizes":[],"default_left":[0,0,0,0,0,0,0,0,0,0,0,0,0,0,0,0,0,0,0,0,0,0,0,0,0,0,0,0,0],"id":11,"left_children":[1,3,5,7,9,11,13,15,17,19,21,23,-1,25,27,-1,-1,-1,-1,-1,-1,-1,-1,-1,-1,-1,-1,-1,-1],"loss_changes":[2.220383E1,1.0953217E1,1.0499091E1,5.603077E0,4.1772785E0,4.4346E0,6.5763326E0,5.819301E0,7.4633403E0,3.283249E0,6.3943763E0,4.2274094E-1,0E0,7.888027E0,1.1546719E1,0E0,0E0,0E0,0E0,0E0,0E0,0E0,0E0,0E0,0E0,0E0,0E0,0E0,0E0],"parents":[2147483647,0,0,1,1,2,2,3,3,4,4,5,5,6,6,7,7,8,8,9,9,10,10,11,11,13,13,14,14],"right_children":[2,4,6,8,10,12,14,16,18,20,22,24,-1,26,28,-1,-1,-1,-1,-1,-1,-1,-1,-1,-1,-1,-1,-1,-1],"split_conditions":[1.4902043E3,1.4832637E3,-2.9469183E2,1.466745E3,4E0,5E0,7E-1,1.375E0,2.857143E-1,3.3333334E-1,1.444634E3,1.4573795E3,2.0932097E-2,4.2857143E-1,1E0,-4.6064887E-2,-1.4650534E-3,-1.5225528E-3,6.531023E-2,1.21513605E-2,-2.8043691E-2,-2.1068713E-2,3.931135E-2,-4.9895447E-2,-5.802943E-3,4.022996E-2,7.556719E-3,6.8891435E-3,-1.2383892E-2],"split_indices":[2,1,0,1,13,13,6,6,4,6,2,1,0,11,15,0,0,0,0,0,0,0,0,0,0,0,0,0,0],"split_type":[0,0,0,0,0,0,0,0,0,0,0,0,0,0,0,0,0,0,0,0,0,0,0,0,0,0,0,0,0],"sum_hessian":[7.714311E2,2.2277725E2,5.486538E2,8.4427986E1,1.3834926E2,1.4095E1,5.3455884E2,6.861005E1,1.5817938E1,1.222748E2,1.6074457E1,1.2104753E1,1.9902482E0,8.78273E1,4.4673154E2,6.8127866E0,6.1797264E1,1.0417583E1,5.4003544E0,4.5095778E0,1.1776523E2,1.0742435E1,5.332021E0,1.1091404E1,1.0133483E0,2.530693E1,6.2520367E1,3.4827325E2,9.845828E1],"tree_param":{"num_deleted":"0","num_feature":"16","num_nodes":"29","size_leaf_vector":"1"}},{"base_weights":[3.1272415E-4,-2.4977885E-1,1.0575837E-1,5.32274E-2,-4.3423417E-1,-2.113743E-1,1.6740242E-1,-5.491762E-2,5.356641E-1,-7.79669E-1,-2.8441018E-1,1.35421E-1,-3.676988E-1,2.9288498E-1,5.230495E-2,-2.3951223E-2,3.2070912E-3,6.678225E-2,1.3190979E-2,-4.1572064E-2,6.1531067E-3,-2.6143843E-3,-2.4118029E-2,-2.0768527E-2,2.0410426E-2,-1.1567037E-2,-4.9486436E-2,-1.5040428E-3,1.8564068E-2,-2.4665858E-5,2.1879787E-2],"categories":[],"categories_nodes":[],"categories_segments":[],"categories_sizes":[],"default_left":[0,0,0,0,0,0,0,0,0,0,0,0,0,0,0,0,0,0,0,0,0,0,0,0,0,0,0,0,0,0,0],"id":12,"left_children":[1,3,5,7,9,11,13,15,17,19,21,23,25,27,29,-1,-1,-1,-1,-1,-1,-1,-1,-1,-1,-1,-1,-1,-1,-1,-1],"loss_changes":[2.0495266E1,1.291756E1,1.0740412E1,4.664435E0,7.0911694E0,4.9339447E0,6.599762E0,3.7675676E0,3.0283365E0,2.1412907E0,4.6677866E0,4.603482E0,4.931183E0,5.5630302E0,4.902896E0,0E0,0E0,0E0,0E0,0E0,0E0,0E0,0E0,0E0,0E0,0E0,0E0,0E0,0E0,0E0,0E0],"parents":[2147483647,0,0,1,1,2,2,3,3,4,4,5,5,6,6,7,7,8,8,9,9,10,10,11,11,12,12,13,13,14,14],"right_children":[2,4,6,8,10,12,14,16,18,20,22,24,26,28,30,-1,-1,-1,-1,-1,-1,-1,-1,-1,-1,-1,-1,-1,-1,-1,-1],"split_conditions":[1.4944083E3,1.4832637E3,9E-1,1.4675647E3,6.25E-1,1.5269917E3,-1.9816284E1,1.4285715E0,1.4285715E0,3.875E0,1.4285715E0,1.125E0,1E0,1.4631382E3,5.555556E-1,-2.3951223E-2,3.2070912E-3,6.678225E-2,1.3190979E-2,-4.1572064E-2,6.1531067E-3,-2.6143843E-3,-2.4118029E-2,-2.0768527E-2,2.0410426E-2,-1.1567037E-2,-4.9486436E-2,-1.5040428E-3,1.8564068E-2,-2.4665858E-5,2.1879787E-2],"split_indices":[2,1,5,1,9,2,0,10,10,5,5,9,15,1,12,0,0,0,0,0,0,0,0,0,0,0,0,0,0,0,0],"split_type":[0,0,0,0,0,0,0,0,0,0,0,0,0,0,0,0,0,0,0,0,0,0,0,0,0,0,0,0,0,0,0],"sum_hessian":[7.7418506E2,2.2899979E2,5.451853E2,8.705727E1,1.4194252E2,8.813328E1,4.5705203E2,7.220152E1,1.4855745E1,4.103234E1,1.0091017E2,2.7446238E1,6.068704E1,2.1755276E2,2.3949927E2,1.4832153E1,5.736937E1,2.279058E0,1.2576688E1,3.8918777E1,2.1135623E0,4.7318882E1,5.3591293E1,8.83111E0,1.8615128E1,5.146338E1,9.223658E0,4.267423E1,1.7487852E2,2.1195247E2,2.7546797E1],"tree_param":{"num_deleted":"0","num_feature":"16","num_nodes":"31","size_leaf_vector":"1"}},{"base_weights":[-9.48302E-3,-2.0292236E-1,9.95058E-2,-7.608311E-2,-4.0642154E-1,-1.0002048E-1,1.9046326E-1,-3.2794815E-1,4.367327E-2,-1.0482928E-1,-5.25771E-1,-5.2503157E-1,4.1818477E-2,1.6741066E-1,1.0124422E0,-2.071756E-2,2.2514058E-2,3.129026E-2,-9.2249404E-4,-2.9075935E-2,2.4909662E-2,-2.7756462E-2,3.204773E-2,-3.5162948E-2,-2.3370644E-3,1.383927E-2,-2.3590991E-2,1.0484307E-2,-1.2665887E-2,7.597854E-2,2.4640378E-2],"categories":[],"categories_nodes":[],"categories_segments":[],"categories_sizes":[],"default_left":[0,0,0,0,0,0,0,0,0,0,0,0,0,0,0,0,0,0,0,0,0,0,0,0,0,0,0,0,0,0,0],"id":13,"left_children":[1,3,5,7,9,11,13,15,17,19,21,23,25,27,29,-1,-1,-1,-1,-1,-1,-1,-1,-1,-1,-1,-1,-1,-1,-1,-1],"loss_changes":[1.644538E1,7.2089243E0,9.0849495E0,5.300023E0,3.7897434E0,9.511732E0,6.2504845E0,4.083831E0,4.354517E0,9.741298E0,3.1611328E0,3.3140316E0,1.45918865E1,6.0508194E0,1.2662144E0,0E0,0E0,0E0,0E0,0E0,0E0,0E0,0E0,0E0,0E0,0E0,0E0,0E0,0E0,0E0,0E0],"parents":[2147483647,0,0,1,1,2,2,3,3,4,4,5,5,6,6,7,7,8,8,9,9,10,10,11,11,12,12,13,13,14,14],"right_children":[2,4,6,8,10,12,14,16,18,20,22,24,26,28,30,-1,-1,-1,-1,-1,-1,-1,-1,-1,-1,-1,-1,-1,-1,-1,-1],"split_conditions":[1.5038083E3,2.2222222E-1,1.1111111E-1,1.25E-1,1.4896473E3,1.4631382E3,1.7701056E3,5E-1,1.3890618E3,1.4616052E3,3.5555556E0,5.555556E-1,3.4466866E1,3E0,4.2857143E-1,-2.071756E-2,2.2514058E-2,3.129026E-2,-9.2249404E-4,-2.9075935E-2,2.4909662E-2,-2.7756462E-2,3.204773E-2,-3.5162948E-2,-2.3370644E-3,1.383927E-2,-2.3590991E-2,1.0484307E-2,-1.2665887E-2,7.597854E-2,2.4640378E-2],"split_indices":[2,4,4,7,1,1,1,8,1,1,5,7,0,14,11,0,0,0,0,0,0,0,0,0,0,0,0,0,0,0,0],"split_type":[0,0,0,0,0,0,0,0,0,0,0,0,0,0,0,0,0,0,0,0,0,0,0,0,0,0,0,0,0,0,0],"sum_hessian":[7.771039E2,2.7958618E2,4.975177E2,1.735037E2,1.06082504E2,1.5573799E2,3.4177972E2,5.507187E1,1.18431816E2,3.087638E1,7.520612E1,3.795523E1,1.1778275E2,3.3421216E2,7.567561E0,5.019979E1,4.8720803E0,1.0107542E1,1.0832427E2,1.727443E1,1.3601951E1,7.412717E1,1.0789582E0,2.7137377E1,1.0817854E1,8.128852E1,3.6494232E1,3.0437997E2,2.983219E1,2.3690605E0,5.1985006E0],"tree_param":{"num_deleted":"0","num_feature":"16","num_nodes":"31","size_leaf_vector":"1"}},{"base_weights":[-1.2247436E-2,9.7450815E-2,-2.5662914E-1,-1.5419956E-1,1.8416399E-1,8.124962E-2,-3.5760185E-1,9.024702E-1,-1.9508609E-1,3.7711E-1,1.0946087E-1,-2.7124166E-2,1.1411549E0,-4.324358E-3,-4.4102415E-1,5.9114832E-2,9.781605E-3,-4.44971E-2,-7.1769045E-3,4.812365E-2,1.43021615E-2,1.7043049E-2,-5.8719964E-4,1.1494081E-2,-2.154571E-2,-6.927767E-3,7.5156175E-2,-2.6388986E-2,9.7574135E-3,-2.466E-2,2.5335708E-4],"categories":[],"categories_nodes":[],"categories_segments":[],"categories_sizes":[],"default_left":[0,0,0,0,0,0,0,0,0,0,0,0,0,0,0,0,0,0,0,0,0,0,0,0,0,0,0,0,0,0,0],"id":14,"left_children":[1,3,5,7,9,11,13,15,17,19,21,23,25,27,29,-1,-1,-1,-1,-1,-1,-1,-1,-1,-1,-1,-1,-1,-1,-1,-1],"loss_changes":[2.0968128E1,1.1825138E1,8.310001E0,6.2776566E0,5.7361526E0,6.5905194E0,5.503191E0,7.3138475E-1,4.6524606E0,5.5393734E0,8.1985E0,5.664492E0,2.7765675E0,4.0391917E0,3.521183E0,0E0,0E0,0E0,0E0,0E0,0E0,0E0,0E0,0E0,0E0,0E0,0E0,0E0,0E0,0E0,0E0],"parents":[2147483647,0,0,1,1,2,2,3,3,4,4,5,5,6,6,7,7,8,8,9,9,10,10,11,11,12,12,13,13,14,14],"right_children":[2,4,6,8,10,12,14,16,18,20,22,24,26,28,30,-1,-1,-1,-1,-1,-1,-1,-1,-1,-1,-1,-1,-1,-1,-1,-1],"split_conditions":[4.623273E1,9E-1,1.1E0,1.3788339E3,1.2E0,1.8132777E3,4.2857143E-1,2.3333333E0,-3.1174423E2,8.5714287E-1,1.1111111E-1,2E0,1.26987885E2,7.427949E1,6E0,5.9114832E-2,9.781605E-3,-4.44971E-2,-7.1769045E-3,4.812365E-2,1.43021615E-2,1.7043049E-2,-5.8719964E-4,1.1494081E-2,-2.154571E-2,-6.927767E-3,7.5156175E-2,-2.6388986E-2,9.7574135E-3,-2.466E-2,2.5335708E-4],"split_indices":[0,5,10,2,5,1,11,10,0,6,11,5,0,0,13,0,0,0,0,0,0,0,0,0,0,0,0,0,0,0,0],"split_type":[0,0,0,0,0,0,0,0,0,0,0,0,0,0,0,0,0,0,0,0,0,0,0,0,0,0,0,0,0,0,0],"sum_hessian":[7.792529E2,5.384534E2,2.4079955E2,1.3769147E2,4.0076193E2,5.547154E1,1.85328E2,3.9518263E0,1.3373964E2,1.1016123E2,2.906007E2,5.1651825E1,3.8197112E0,3.570441E1,1.496236E2,2.1082277E0,1.8435986E0,7.551436E0,1.2618821E2,1.2898482E1,9.726275E1,9.8957016E1,1.9164369E2,3.195746E1,1.9694366E1,1.0463285E0,2.7733827E0,9.170474E0,2.6533937E1,1.33814E2,1.5809594E1],"tree_param":{"num_deleted":"0","num_feature":"16","num_nodes":"31","size_leaf_vector":"1"}},{"base_weights":[1.1427441E-3,3.4334064E-2,-5.875276E-1,-2.713876E-2,1.95588E-1,-2.4298339E-1,-4.5380007E-2,5.3786382E-2,-1.4692163E-1,-5.529748E-1,2.573283E-1,-5.281552E-1,8.558637E-1,-2.7500717E-2,4.150208E-3,-1.6610188E-2,4.6821283E-3,2.08045E-2,-3.4674365E-2,6.862229E-3,2.9277612E-2,-3.2289978E-2,2.048464E-2,-1.01413E-2,6.3991584E-2],"categories":[],"categories_nodes":[],"categories_segments":[],"categories_sizes":[],"default_left":[0,0,0,0,0,0,0,0,0,0,0,0,0,0,0,0,0,0,0,0,0,0,0,0,0],"id":15,"left_children":[1,3,5,7,9,11,-1,13,15,17,19,21,23,-1,-1,-1,-1,-1,-1,-1,-1,-1,-1,-1,-1],"loss_changes":[1.5140855E1,7.279004E0,4.2304068E0,5.172394E0,9.5783415E0,7.5616918E0,0E0,5.6930094E0,9.632118E0,2.5999932E0,7.297841E0,2.4235158E0,2.6779172E0,0E0,0E0,0E0,0E0,0E0,0E0,0E0,0E0,0E0,0E0,0E0,0E0],"parents":[2147483647,0,0,1,1,2,2,3,3,4,4,5,5,7,7,8,8,9,9,10,10,11,11,12,12],"right_children":[2,4,6,8,10,12,-1,14,16,18,20,22,24,-1,-1,-1,-1,-1,-1,-1,-1,-1,-1,-1,-1],"split_conditions":[3E0,1.6051482E3,1.4832637E3,2.5E-1,1.4098911E3,1.4693129E3,-4.5380007E-2,1E-1,3.75E-1,1E-1,1.1E0,5.3333335E0,1.4163291E3,-2.7500717E-2,4.150208E-3,-1.6610188E-2,4.6821283E-3,2.08045E-2,-3.4674365E-2,6.862229E-3,2.9277612E-2,-3.2289978E-2,2.048464E-2,-1.01413E-2,6.3991584E-2],"split_indices":[10,2,1,8,1,1,0,7,8,8,10,6,2,0,0,0,0,0,0,0,0,0,0,0,0],"split_type":[0,0,0,0,0,0,0,0,0,0,0,0,0,0,0,0,0,0,0,0,0,0,0,0,0],"sum_hessian":[7.718657E2,7.320052E2,3.9860535E1,5.308742E2,2.01131E2,2.0467205E1,1.939333E1,3.1731982E2,2.1355437E2,1.4415642E1,1.8671535E2,1.6868532E1,3.598674E0,1.3412224E1,3.039076E2,1.2031589E2,9.323849E1,1.4529954E0,1.29626465E1,1.3825919E2,4.845617E1,1.54034195E1,1.4651126E0,1.2527744E0,2.3458996E0],"tree_param":{"num_deleted":"0","num_feature":"16","num_nodes":"25","size_leaf_vector":"1"}},{"base_weights":[-2.7325596E-3,-4.3952122E-1,4.9482945E-2,-5.317607E-2,-6.95144E-1,-6.3924235E-1,6.648312E-2,-5.172859E-1,2.6585427E-1,-7.5942755E-1,1.2163565E-1,-7.8746665E-1,3.405806E-2,-4.184777E-3,2.448793E-1,-4.0669188E-2,1.2545851E-2,2.2920443E-2,-2.4114639E-2,-4.292157E-2,-1.7667681E-2,3.241745E-2,-2.057294E-2,-4.5549717E-2,-7.428021E-3,4.1204793E-3,-7.07038E-3,1.910684E-2,-1.2527977E-3],"categories":[],"categories_nodes":[],"categories_segments":[],"categories_sizes":[],"default_left":[0,0,0,0,0,0,0,0,0,0,0,0,0,0,0,0,0,0,0,0,0,0,0,0,0,0,0,0,0],"id":16,"left_children":[1,3,5,7,9,11,13,15,17,19,21,23,-1,25,27,-1,-1,-1,-1,-1,-1,-1,-1,-1,-1,-1,-1,-1,-1],"loss_changes":[1.7711027E1,8.133532E0,8.185976E0,5.335483E0,2.752161E0,4.102783E0,8.553474E0,3.6319304E0,3.4318233E0,1.4085217E0,1.7829664E0,1.0476665E0,0E0,5.8086123E0,7.146512E0,0E0,0E0,0E0,0E0,0E0,0E0,0E0,0E0,0E0,0E0,0E0,0E0,0E0,0E0],"parents":[2147483647,0,0,1,1,2,2,3,3,4,4,5,5,6,6,7,7,8,8,9,9,10,10,11,11,13,13,14,14],"right_children":[2,4,6,8,10,12,14,16,18,20,22,24,-1,26,28,-1,-1,-1,-1,-1,-1,-1,-1,-1,-1,-1,-1,-1,-1],"split_conditions":[7E-1,4.3158325E1,-2.8246768E2,1.5555556E0,1.5029507E3,6E0,1.6051482E3,1.4285715E0,4.1E0,2.5E-1,5.555556E-1,1.4252145E3,3.405806E-2,2.5E-1,2E0,-4.0669188E-2,1.2545851E-2,2.2920443E-2,-2.4114639E-2,-4.292157E-2,-1.7667681E-2,3.241745E-2,-2.057294E-2,-4.5549717E-2,-7.428021E-3,4.1204793E-3,-7.07038E-3,1.910684E-2,-1.2527977E-3],"split_indices":[9,0,0,6,2,13,2,5,6,8,11,1,0,8,9,0,0,0,0,0,0,0,0,0,0,0,0,0,0],"split_type":[0,0,0,0,0,0,0,0,0,0,0,0,0,0,0,0,0,0,0,0,0,0,0,0,0,0,0,0,0],"sum_hessian":[7.7362573E2,8.141914E1,6.922066E2,3.314151E1,4.8277634E1,1.5351958E1,6.768547E2,1.3121232E1,2.0020277E1,4.4852875E1,3.4247594E0,1.4346851E1,1.0051062E0,4.8585733E2,1.9099733E2,9.407113E0,3.7141194E0,1.638428E1,3.6359968E0,3.471752E1,1.0135354E1,1.5595644E0,1.865195E0,1.1487109E1,2.8597426E0,2.982476E2,1.8760974E2,1.2620217E2,6.479516E1],"tree_param":{"num_deleted":"0","num_feature":"16","num_nodes":"29","size_leaf_vector":"1"}},{"base_weights":[-2.6355358E-4,9.214696E-2,-2.1983708E-1,-1.8806112E-1,1.864406E-1,-1.488952E-1,-7.3977846E-1,4.2641065E-1,-2.4883956E-1,-1.8569669E-1,2.2481176E-1,-2.737547E-2,-4.9994978E-1,1.3103274E-2,-8.261596E-1,-1.0987642E-2,6.259163E-2,-7.7489363E-3,-3.0558571E-2,-2.428811E-2,7.351853E-3,2.9472886E-2,7.7681737E-3,-1.1795511E-2,1.3063799E-2,1.9510543E-2,-2.8739179E-2,-4.418841E-2,-2.7592331E-3],"categories":[],"categories_nodes":[],"categories_segments":[],"categories_sizes":[],"default_left":[0,0,0,0,0,0,0,0,0,0,0,0,0,0,0,0,0,0,0,0,0,0,0,0,0,0,0,0,0],"id":17,"left_children":[1,3,5,7,9,11,13,15,17,19,21,23,25,-1,27,-1,-1,-1,-1,-1,-1,-1,-1,-1,-1,-1,-1,-1,-1],"loss_changes":[1.5643547E1,1.4389215E1,8.258011E0,5.2893276E0,5.8705854E0,8.631858E0,2.6647463E0,7.301983E0,4.1413007E0,3.9850256E0,9.217293E0,9.257225E0,3.804861E0,0E0,1.0485001E0,0E0,0E0,0E0,0E0,0E0,0E0,0E0,0E0,0E0,0E0,0E0,0E0,0E0,0E0],"parents":[2147483647,0,0,1,1,2,2,3,3,4,4,5,5,6,6,7,7,8,8,9,9,10,10,11,11,12,12,14,14],"right_children":[2,4,6,8,10,12,14,16,18,20,22,24,26,-1,28,-1,-1,-1,-1,-1,-1,-1,-1,-1,-1,-1,-1,-1,-1],"split_conditions":[5.410129E1,9E-1,2.7E0,1.4210349E3,-1.6877206E2,2.1E0,1.4228242E3,1.1111111E-1,7.777778E-1,2E0,-9.7633804E1,1.5085787E3,1.3926748E3,1.3103274E-2,4.2857143E-1,-1.0987642E-2,6.259163E-2,-7.7489363E-3,-3.0558571E-2,-2.428811E-2,7.351853E-3,2.9472886E-2,7.7681737E-3,-1.1795511E-2,1.3063799E-2,1.9510543E-2,-2.8739179E-2,-4.418841E-2,-2.7592331E-3],"split_indices":[0,5,10,2,0,5,1,7,5,13,0,2,2,0,4,0,0,0,0,0,0,0,0,0,0,0,0,0,0],"split_type":[0,0,0,0,0,0,0,0,0,0,0,0,0,0,0,0,0,0,0,0,0,0,0,0,0,0,0,0,0],"sum_hessian":[7.67966E2,5.411051E2,2.2686095E2,1.3586618E2,4.0523892E2,2.0132175E2,2.5539204E1,1.1416933E1,1.2444924E2,3.734028E1,3.6789862E2,1.5075421E2,5.056754E1,1.7850899E0,2.3754114E1,7.0211964E0,4.395737E0,1.00545E2,2.3904245E1,1.9271244E1,1.8069036E1,5.7061157E1,3.1083746E2,8.768251E1,6.3071693E1,3.431205E0,4.7136333E1,2.189838E1,1.8557343E0],"tree_param":{"num_deleted":"0","num_feature":"16","num_nodes":"29","size_leaf_vector":"1"}},{"base_weights":[-1.88061E-2,-2.474388E-1,6.263247E-2,-1.978992E-2,-4.0137762E-1,1.0869738E-1,-1.7281854E-1,6.535213E-2,-6.0468423E-1,-7.2927916E-1,-1.8232381E-1,2.5528678E-1,-3.0820703E-3,2.7610356E-1,-3.5672945E-1,1.7157454E-2,-5.4440848E-3,-3.670179E-2,1.0792864E-2,-3.8020067E-2,1.3993703E-2,-1.1750604E-2,3.6195006E-2,8.033964E-3,2.7652178E-2,1.07390825E-2,-6.917357E-3,-5.196318E-3,4.518467E-2,-7.232257E-3,-3.7636414E-2],"categories":[],"categories_nodes":[],"categories_segments":[],"categories_sizes":[],"default_left":[0,0,0,0,0,0,0,0,0,0,0,0,0,0,0,0,0,0,0,0,0,0,0,0,0,0,0,0,0,0,0],"id":18,"left_children":[1,3,5,7,9,11,13,15,17,19,21,23,25,27,29,-1,-1,-1,-1,-1,-1,-1,-1,-1,-1,-1,-1,-1,-1,-1,-1],"loss_changes":[1.4529971E1,7.1697607E0,6.272027E0,4.25491E0,8.576641E0,7.905667E0,7.9728327E0,3.6812787E0,1.3895011E0,1.8403778E0,3.8481045E0,5.7464085E0,8.153949E0,6.9119024E0,5.538354E0,0E0,0E0,0E0,0E0,0E0,0E0,0E0,0E0,0E0,0E0,0E0,0E0,0E0,0E0,0E0,0E0],"parents":[2147483647,0,0,1,1,2,2,3,3,4,4,5,5,6,6,7,7,8,8,9,9,10,10,11,11,12,12,13,13,14,14],"right_children":[2,4,6,8,10,12,14,16,18,20,22,24,26,28,30,-1,-1,-1,-1,-1,-1,-1,-1,-1,-1,-1,-1,-1,-1,-1,-1],"split_conditions":[1.4855854E3,1.4832637E3,1.8571428E0,4E0,8E-1,5E-1,1.1111111E-1,1.1111111E-1,1.4600427E3,2.1111112E0,4.2857143E-1,6E-1,1.5445167E3,1.4722947E3,1.7142857E0,1.7157454E-2,-5.4440848E-3,-3.670179E-2,1.0792864E-2,-3.8020067E-2,1.3993703E-2,-1.1750604E-2,3.6195006E-2,8.033964E-3,2.7652178E-2,1.07390825E-2,-6.917357E-3,-5.196318E-3,4.518467E-2,-7.232257E-3,-3.7636414E-2],"split_indices":[2,1,6,6,9,11,8,12,1,6,8,3,1,1,9,0,0,0,0,0,0,0,0,0,0,0,0,0,0,0,0],"split_type":[0,0,0,0,0,0,0,0,0,0,0,0,0,0,0,0,0,0,0,0,0,0,0,0,0,0,0,0,0,0,0],"sum_hessian":[7.776138E2,2.0343309E2,5.741807E2,8.27512E1,1.20681885E2,4.8090198E2,9.327875E1,7.339903E1,9.352169E0,4.6933422E1,7.374846E1,2.0722194E2,2.7368002E2,2.6889702E1,6.6389046E1,2.7730902E1,4.566813E1,8.215242E0,1.1369267E0,4.5887985E1,1.045436E0,7.074625E1,3.0022151E0,1.5900883E2,4.82131E1,1.0449467E2,1.6918536E2,1.7527641E1,9.362061E0,4.4567833E1,2.1821209E1],"tree_param":{"num_deleted":"0","num_feature":"16","num_nodes":"31","size_leaf_vector":"1"}},{"base_weights":[-1.2185058E-2,1.9009529E-2,-6.220718E-1,-1.6036251E-1,5.8754947E-2,-6.814082E-1,2.4420945E-2,-3.3594564E-1,-3.8730524E-2,2.457384E-1,4.1224305E-3,-1.4093738E-2,-7.8660643E-1,9.669257E-3,-1.9957079E-2,1.1652459E-2,-1.0140955E-2,8.903253E-3,4.3248337E-2,-5.3388877E-3,6.4785047E-3,-2.4604036E-2,4.616846E-2,-4.8467875E-2,-2.6980529E-2],"categories":[],"categories_nodes":[],"categories_segments":[],"categories_sizes":[],"default_left":[0,0,0,0,0,0,0,0,0,0,0,0,0,0,0,0,0,0,0,0,0,0,0,0,0],"id":19,"left_children":[1,3,5,7,9,11,-1,13,15,17,19,21,23,-1,-1,-1,-1,-1,-1,-1,-1,-1,-1,-1,-1],"loss_changes":[1.4738689E1,5.272407E0,2.9830542E0,2.8462827E0,6.1775417E0,2.5393238E0,0E0,1.94624E0,3.6817806E0,5.4993143E0,6.554368E0,3.5876749E0,6.338291E-1,0E0,0E0,0E0,0E0,0E0,0E0,0E0,0E0,0E0,0E0,0E0,0E0],"parents":[2147483647,0,0,1,1,2,2,3,3,4,4,5,5,7,7,8,8,9,9,10,10,11,11,12,12],"right_children":[2,4,6,8,10,12,-1,14,16,18,20,22,24,-1,-1,-1,-1,-1,-1,-1,-1,-1,-1,-1,-1],"split_conditions":[3E0,9E-1,5.555556E-1,1.6666667E-1,1.1666666E0,5.555556E-1,2.4420945E-2,5.555556E-1,2.2E-1,9E0,5E-1,1.1111111E-1,5.555556E-1,9.669257E-3,-1.9957079E-2,1.1652459E-2,-1.0140955E-2,8.903253E-3,4.3248337E-2,-5.3388877E-3,6.4785047E-3,-2.4604036E-2,4.616846E-2,-4.8467875E-2,-2.6980529E-2],"split_indices":[10,5,12,4,5,5,0,9,4,13,7,3,11,0,0,0,0,0,0,0,0,0,0,0,0],"split_type":[0,0,0,0,0,0,0,0,0,0,0,0,0,0,0,0,0,0,0,0,0,0,0,0,0],"sum_hessian":[7.722621E2,7.360669E2,3.619522E1,1.3268848E2,6.033784E2,3.49095E1,1.285721E0,5.3219677E1,7.9468796E1,1.3524529E2,4.6813312E2,4.985491E0,2.9924011E1,5.346565E0,4.787311E1,2.9679794E1,4.9789E1,1.2366203E2,1.15832615E1,2.4859213E2,2.19541E2,3.773914E0,1.2115767E0,1.4677392E1,1.5246618E1],"tree_param":{"num_deleted":"0","num_feature":"16","num_nodes":"25","size_leaf_vector":"1"}},{"base_weights":[4.4238225E-2,1.1832315E-1,-1.4514387E-1,1.9241764E-1,-9.933788E-2,-5.730526E-1,-4.5936704E-2,6.172514E-1,1.6432457E-1,-1.1436453E-2,-6.2307525E-1,-6.900848E-1,3.5934362E-1,8.25939E-2,-3.8813725E-1,3.7323035E-2,-3.299796E-2,1.1423049E-2,-4.5550684E-3,3.642819E-2,-3.435035E-3,-3.7102338E-2,3.0872757E-2,9.63468E-3,-3.8350698E-2,4.2245742E-2,-1.7854353E-2,2.277558E-2,-1.9832083E-3,-2.5661057E-2,2.7166242E-2],"categories":[],"categories_nodes":[],"categories_segments":[],"categories_sizes":[],"default_left":[0,0,0,0,0,0,0,0,0,0,0,0,0,0,0,0,0,0,0,0,0,0,0,0,0,0,0,0,0,0,0],"id":20,"left_children":[1,3,5,7,9,11,13,15,17,19,21,23,25,27,29,-1,-1,-1,-1,-1,-1,-1,-1,-1,-1,-1,-1,-1,-1,-1,-1],"loss_changes":[1.0882336E1,9.012221E0,9.225918E0,4.8137197E0,6.5475063E0,4.840128E0,7.912771E0,4.908103E0,6.4581842E0,5.308857E0,3.7046542E0,2.7272377E0,2.3842556E0,6.009909E0,6.137386E0,0E0,0E0,0E0,0E0,0E0,0E0,0E0,0E0,0E0,0E0,0E0,0E0,0E0,0E0,0E0,0E0],"parents":[2147483647,0,0,1,1,2,2,3,3,4,4,5,5,6,6,7,7,8,8,9,9,10,10,11,11,12,12,13,13,14,14],"right_children":[2,4,6,8,10,12,14,16,18,20,22,24,26,28,30,-1,-1,-1,-1,-1,-1,-1,-1,-1,-1,-1,-1,-1,-1,-1,-1],"split_conditions":[5.562674E1,1.8571428E0,6.25E-1,5E-1,1E0,4E0,2.1E0,4.714286E0,1E0,4.2857143E-1,1.8594835E1,1.4228242E3,7E-1,4.2857143E-1,1.8132777E3,3.7323035E-2,-3.299796E-2,1.1423049E-2,-4.5550684E-3,3.642819E-2,-3.435035E-3,-3.7102338E-2,3.0872757E-2,9.63468E-3,-3.8350698E-2,4.2245742E-2,-1.7854353E-2,2.277558E-2,-1.9832083E-3,-2.5661057E-2,2.7166242E-2],"split_indices":[0,6,9,6,15,13,5,5,15,9,0,1,11,11,1,0,0,0,0,0,0,0,0,0,0,0,0,0,0,0,0],"split_type":[0,0,0,0,0,0,0,0,0,0,0,0,0,0,0,0,0,0,0,0,0,0,0,0,0,0,0,0,0,0,0],"sum_hessian":[7.722917E2,5.555337E2,2.16758E2,4.1457968E2,1.4095404E2,3.944707E1,1.7731093E2,2.3763391E1,3.9081628E2,1.2200937E2,1.894468E1,3.5394283E1,4.0527887E0,1.2972438E2,4.7586548E1,2.214629E1,1.6171032E0,3.125057E2,7.8310555E1,7.500428E0,1.14508934E2,1.783681E1,1.1078702E0,2.6562285E0,3.2738052E1,2.255251E0,1.7975376E0,3.1019234E1,9.870514E1,4.254659E1,5.0399585E0],"tree_param":{"num_deleted":"0","num_feature":"16","num_nodes":"31","size_leaf_vector":"1"}},{"base_weights":[-1.4422528E-2,1.3740451E-2,-3.8809097E-1,2.5570946E-2,-6.676684E-1,-1.1388121E-1,-7.419025E-1,-7.195873E-2,7.7980645E-2,-8.7370837E-1,2.5881061E-2,1.4646839E-2,-4.23799E-2,-9.262911E-1,-2.5275892E-1,-5.2996934E-3,3.458659E-2,3.054693E-3,4.9433243E-2,-5.0942894E-2,-2.7272124E-3,-1.1434747E-2,4.573745E-2,-4.8616163E-2,-5.8689076E-3,2.7407676E-2,-3.5738867E-2],"categories":[],"categories_nodes":[],"categories_segments":[],"categories_sizes":[],"default_left":[0,0,0,0,0,0,0,0,0,0,0,0,0,0,0,0,0,0,0,0,0,0,0,0,0,0,0],"id":21,"left_children":[1,3,5,7,9,11,13,15,17,19,-1,21,-1,23,25,-1,-1,-1,-1,-1,-1,-1,-1,-1,-1,-1,-1],"loss_changes":[8.085286E0,5.7910743E0,5.0972776E0,3.6091282E0,3.6725945E0,3.0464325E0,1.7447252E0,6.530267E0,6.9670043E0,1.2248983E0,0E0,6.621001E0,0E0,4.3625832E-1,3.705158E0,0E0,0E0,0E0,0E0,0E0,0E0,0E0,0E0,0E0,0E0,0E0,0E0],"parents":[2147483647,0,0,1,1,2,2,3,3,4,4,5,5,6,6,7,7,8,8,9,9,11,11,13,13,14,14],"right_children":[2,4,6,8,10,12,14,16,18,20,-1,22,-1,24,26,-1,-1,-1,-1,-1,-1,-1,-1,-1,-1,-1,-1],"split_conditions":[2.5555556E0,4.1E0,1.5019113E3,4E-1,1.484E3,1.4758181E3,1.1111111E-1,3E0,1.8132777E3,7.5E-1,2.5881061E-2,1.4463806E3,-4.23799E-2,1.3333334E0,1.4140198E3,-5.2996934E-3,3.458659E-2,3.054693E-3,4.9433243E-2,-5.0942894E-2,-2.7272124E-3,-1.1434747E-2,4.573745E-2,-4.8616163E-2,-5.8689076E-3,2.7407676E-2,-3.5738867E-2],"split_indices":[10,6,1,7,1,2,8,6,1,5,0,2,0,9,2,0,0,0,0,0,0,0,0,0,0,0,0],"split_type":[0,0,0,0,0,0,0,0,0,0,0,0,0,0,0,0,0,0,0,0,0,0,0,0,0,0,0],"sum_hessian":[7.660391E2,7.1369366E2,5.2345463E1,7.0293317E2,1.0760486E1,3.0607191E1,2.1738272E1,2.4550719E2,4.57426E2,9.502898E0,1.2575871E0,2.7295746E1,3.3114467E0,1.4813568E1,6.9247046E0,2.3626926E2,9.23792E0,4.5066986E2,6.7561283E0,7.7618876E0,1.7410111E0,2.2367577E1,4.9281683E0,1.3729269E1,1.0842987E0,2.430963E0,4.4937415E0],"tree_param":{"num_deleted":"0","num_feature":"16","num_nodes":"27","size_leaf_vector":"1"}},{"base_weights":[-9.008818E-3,1.6403088E-2,-4.5467916E-1,2.885023E-2,-7.3407733E-1,-1.3203324E-1,-7.563104E-1,1.3834043E-2,3.4949753E-1,9.7325854E-2,-9.29435E-1,-4.8452076E-1,1.7954695E-1,-4.5541067E-2,-3.6614296E-1,2.4482612E-3,-5.9370925E-3,2.682211E-2,-2.678341E-2,1.4175586E-2,-7.078249E-3,-5.022138E-2,-7.871362E-3,2.1817645E-2,-3.4643028E-2,-1.2979236E-2,2.4123853E-2,9.418608E-3,-3.4306385E-2],"categories":[],"categories_nodes":[],"categories_segments":[],"categories_sizes":[],"default_left":[0,0,0,0,0,0,0,0,0,0,0,0,0,0,0,0,0,0,0,0,0,0,0,0,0,0,0,0,0],"id":22,"left_children":[1,3,5,7,9,11,13,15,17,19,21,23,25,-1,27,-1,-1,-1,-1,-1,-1,-1,-1,-1,-1,-1,-1,-1,-1],"loss_changes":[8.7382555E0,6.855233E0,3.9006872E0,3.459404E0,2.0805397E0,2.5386693E0,7.7740574E-1,3.219345E0,5.7506742E0,2.219293E-1,3.3238506E-1,2.5051138E0,1.8817132E0,0E0,1.7056844E0,0E0,0E0,0E0,0E0,0E0,0E0,0E0,0E0,0E0,0E0,0E0,0E0,0E0,0E0],"parents":[2147483647,0,0,1,1,2,2,3,3,4,4,5,5,6,6,7,7,8,8,9,9,10,10,11,11,12,12,14,14],"right_children":[2,4,6,8,10,12,14,16,18,20,22,24,26,-1,28,-1,-1,-1,-1,-1,-1,-1,-1,-1,-1,-1,-1,-1,-1],"split_conditions":[2.75E0,4.1E0,1.1666666E0,1E1,1E-1,1E0,2.2E-1,1E0,1.8333334E0,1.4986387E3,1.566636E3,2.9E0,2E0,-4.5541067E-2,1.4009344E3,2.4482612E-3,-5.9370925E-3,2.682211E-2,-2.678341E-2,1.4175586E-2,-7.078249E-3,-5.022138E-2,-7.871362E-3,2.1817645E-2,-3.4643028E-2,-1.2979236E-2,2.4123853E-2,9.418608E-3,-3.4306385E-2],"split_indices":[10,6,5,13,8,13,4,15,5,2,2,10,6,0,2,0,0,0,0,0,0,0,0,0,0,0,0,0,0],"split_type":[0,0,0,0,0,0,0,0,0,0,0,0,0,0,0,0,0,0,0,0,0,0,0,0,0,0,0,0,0],"sum_hessian":[7.690794E2,7.289593E2,4.0120113E1,7.1848517E2,1.0474145E1,2.0426786E1,1.9693325E1,6.878378E2,3.0647318E1,2.1360888E0,8.338057E0,9.193598E0,1.1233189E1,1.267301E1,7.020315E0,5.444978E2,1.4334006E2,2.5791225E1,4.856093E0,1.0430135E0,1.0930753E0,7.1882086E0,1.1498477E0,1.3933349E0,7.800263E0,4.6733155E0,6.559873E0,2.7945259E0,4.2257895E0],"tree_param":{"num_deleted":"0","num_feature":"16","num_nodes":"29","size_leaf_vector":"1"}},{"base_weights":[-5.018132E-3,7.105872E-2,-1.7318611E-1,-2.623004E-1,1.4112993E-1,1.6827989E-1,-2.8255236E-1,6.459479E-1,-3.2105097E-1,2.5221455E-1,-4.5602467E-2,3.6699745E-1,-2.2264831E-1,-5.603173E-1,-1.6868176E-1,5.639693E-2,-2.0163045E-3,-3.9641624E-3,-2.5473237E-2,1.1137346E-2,5.364382E-2,-3.7316798E-4,-3.5064828E-2,-2.2585345E-2,2.9345928E-2,3.7637196E-2,-1.7507276E-2,-3.0015368E-2,4.7883303E-3,-1.0635499E-2,4.6201438E-2],"categories":[],"categories_nodes":[],"categories_segments":[],"categories_sizes":[],"default_left":[0,0,0,0,0,0,0,0,0,0,0,0,0,0,0,0,0,0,0,0,0,0,0,0,0,0,0,0,0,0,0],"id":23,"left_children":[1,3,5,7,9,11,13,15,17,19,21,23,25,27,29,-1,-1,-1,-1,-1,-1,-1,-1,-1,-1,-1,-1,-1,-1,-1,-1],"loss_changes":[9.912193E0,1.2517907E1,9.083059E0,5.2837353E0,9.182117E0,4.743168E0,5.656888E0,2.1057737E0,3.9722004E0,6.346426E0,4.1451635E0,7.59976E0,3.004274E0,1.4678383E0,6.6536913E0,0E0,0E0,0E0,0E0,0E0,0E0,0E0,0E0,0E0,0E0,0E0,0E0,0E0,0E0,0E0,0E0],"parents":[2147483647,0,0,1,1,2,2,3,3,4,4,5,5,6,6,7,7,8,8,9,9,10,10,11,11,12,12,13,13,14,14],"right_children":[2,4,6,8,10,12,14,16,18,20,22,24,26,28,30,-1,-1,-1,-1,-1,-1,-1,-1,-1,-1,-1,-1,-1,-1,-1,-1],"split_conditions":[4.427567E1,1.4303069E3,1.1E0,1.3788339E3,1.7142857E0,2.1E0,2E-1,2.2222223E0,2.1111112E0,7.777778E-1,8E0,6.0614464E1,4.729519E1,9E0,1.7888708E3,5.639693E-2,-2.0163045E-3,-3.9641624E-3,-2.5473237E-2,1.1137346E-2,5.364382E-2,-3.7316798E-4,-3.5064828E-2,-2.2585345E-2,2.9345928E-2,3.7637196E-2,-1.7507276E-2,-3.0015368E-2,4.7883303E-3,-1.0635499E-2,4.6201438E-2],"split_indices":[0,1,10,2,9,5,4,10,6,3,13,0,0,13,1,0,0,0,0,0,0,0,0,0,0,0,0,0,0,0,0],"split_type":[0,0,0,0,0,0,0,0,0,0,0,0,0,0,0,0,0,0,0,0,0,0,0,0,0,0,0,0,0,0,0],"sum_hessian":[7.718292E2,5.320179E2,2.3981131E2,9.169066E1,4.4032724E2,5.797921E1,1.818321E2,4.659863E0,8.70308E1,2.7575705E2,1.6457019E2,3.850041E1,1.94788E1,5.1158955E1,1.3067314E2,2.1702662E0,2.4895968E0,3.9051765E1,4.7979034E1,2.6803964E2,7.717407E0,1.5695766E2,7.612527E0,7.8174214E0,3.0682987E1,1.4014305E0,1.807737E1,4.8340023E1,2.8189306E0,1.26773125E2,3.9000227E0],"tree_param":{"num_deleted":"0","num_feature":"16","num_nodes":"31","size_leaf_vector":"1"}},{"base_weights":[-1.2105461E-2,9.40642E-2,-2.4823184E-1,1.7218949E-1,-9.900102E-2,-6.779805E-1,-1.4994591E-1,1.6445035E-2,2.6697114E-1,4.2528245E-1,-1.5962547E-1,-7.883249E-1,1.9124497E-1,-1.9308163E-1,6.896663E-1,8.511893E-3,-9.171023E-3,2.1763459E-2,4.8251958E-3,-2.394871E-2,3.1730816E-2,-1.0185712E-2,2.6655613E-2,-4.6344224E-2,-2.9053075E-2,4.5141563E-2,-2.6915357E-2,-1.2439265E-2,1.2232637E-2,-2.5799775E-2,4.5641415E-2],"categories":[],"categories_nodes":[],"categories_segments":[],"categories_sizes":[],"default_left":[0,0,0,0,0,0,0,0,0,0,0,0,0,0,0,0,0,0,0,0,0,0,0,0,0,0,0,0,0,0,0],"id":24,"left_children":[1,3,5,7,9,11,13,15,17,19,21,23,25,27,29,-1,-1,-1,-1,-1,-1,-1,-1,-1,-1,-1,-1,-1,-1,-1,-1],"loss_changes":[1.9366005E1,8.065172E0,9.967057E0,5.6030083E0,5.0126643E0,4.4625645E0,7.331423E0,4.515132E0,6.7117405E0,3.564764E0,4.425983E0,3.2611465E-1,3.938624E0,4.686681E0,3.38374E0,0E0,0E0,0E0,0E0,0E0,0E0,0E0,0E0,0E0,0E0,0E0,0E0,0E0,0E0,0E0,0E0],"parents":[2147483647,0,0,1,1,2,2,3,3,4,4,5,5,6,6,7,7,8,8,9,9,10,10,11,11,12,12,13,13,14,14],"right_children":[2,4,6,8,10,12,14,16,18,20,22,24,26,28,30,-1,-1,-1,-1,-1,-1,-1,-1,-1,-1,-1,-1,-1,-1,-1,-1],"split_conditions":[4.5308506E1,1.75E0,7E-1,9E-1,6.25E-1,4E0,1.8132777E3,1.5667244E3,-1.9816284E1,1.3859929E3,2.7586887E1,1.1111111E-1,2.2E-1,6E-1,2.2222222E-1,8.511893E-3,-9.171023E-3,2.1763459E-2,4.8251958E-3,-2.394871E-2,3.1730816E-2,-1.0185712E-2,2.6655613E-2,-4.6344224E-2,-2.9053075E-2,4.5141563E-2,-2.6915357E-2,-1.2439265E-2,1.2232637E-2,-2.5799775E-2,4.5641415E-2],"split_indices":[0,6,9,10,10,13,1,1,0,1,0,8,8,12,7,0,0,0,0,0,0,0,0,0,0,0,0,0,0,0,0],"split_type":[0,0,0,0,0,0,0,0,0,0,0,0,0,0,0,0,0,0,0,0,0,0,0,0,0,0,0,0,0,0,0],"sum_hessian":[7.6959686E2,5.315142E2,2.3808264E2,3.7850964E2,1.5300458E2,4.2668858E1,1.9541379E2,1.4386769E2,2.3464197E2,1.492343E1,1.3808115E2,3.798627E1,4.6825857E0,1.8696346E2,8.450338E0,8.143065E1,6.2437035E1,1.1689972E2,1.1774225E2,2.4421177E0,1.2481313E1,1.3081447E2,7.2666926E0,1.9645115E1,1.8341158E1,2.1901238E0,2.4924617E0,1.6643175E2,2.053171E1,1.0124023E0,7.437936E0],"tree_param":{"num_deleted":"0","num_feature":"16","num_nodes":"31","size_leaf_vector":"1"}},{"base_weights":[2.430303E-2,-2.2508691E-1,5.25351E-2,8.144226E-2,-4.7668964E-1,-7.129998E-1,5.8772605E-2,2.1985534E-1,-5.36304E-1,-6.586054E-1,2.80989E-1,-6.4222836E-3,-4.0300567E-2,6.816102E-2,-4.1357878E-1,-1.592054E-2,2.1596586E-2,-4.341764E-2,1.2027645E-2,-3.5950854E-2,1.18009215E-2,5.3761132E-2,-2.9536672E-3,7.6503055E-3,1.0291383E-3,-4.1497238E-2,6.7692124E-3],"categories":[],"categories_nodes":[],"categories_segments":[],"categories_sizes":[],"default_left":[0,0,0,0,0,0,0,0,0,0,0,0,0,0,0,0,0,0,0,0,0,0,0,0,0,0,0],"id":25,"left_children":[1,3,5,7,9,11,13,15,17,19,21,-1,-1,23,25,-1,-1,-1,-1,-1,-1,-1,-1,-1,-1,-1,-1],"loss_changes":[5.4589953E0,6.141257E0,3.3836246E0,3.3265762E0,6.2784233E0,1.5651226E-1,3.1075468E0,3.7630825E0,2.1651926E0,2.1762075E0,2.6558843E0,0E0,0E0,2.736361E0,3.2960427E0,0E0,0E0,0E0,0E0,0E0,0E0,0E0,0E0,0E0,0E0,0E0,0E0],"parents":[2147483647,0,0,1,1,2,2,3,3,4,4,5,5,6,6,7,7,8,8,9,9,10,10,13,13,14,14],"right_children":[2,4,6,8,10,12,14,16,18,20,22,-1,-1,24,26,-1,-1,-1,-1,-1,-1,-1,-1,-1,-1,-1,-1],"split_conditions":[7E-1,1.4862501E3,1.2596727E3,3.3333333E0,1.4992637E3,1E0,3E0,1.5555556E0,5.2E0,3.875E0,5.555556E-1,-6.4222836E-3,-4.0300567E-2,1.2E0,1.8333334E0,-1.592054E-2,2.1596586E-2,-4.341764E-2,1.2027645E-2,-3.5950854E-2,1.18009215E-2,5.3761132E-2,-2.9536672E-3,7.6503055E-3,1.0291383E-3,-4.1497238E-2,6.7692124E-3],"split_indices":[9,1,1,6,2,9,10,6,6,5,6,0,0,5,6,0,0,0,0,0,0,0,0,0,0,0,0],"split_type":[0,0,0,0,0,0,0,0,0,0,0,0,0,0,0,0,0,0,0,0,0,0,0,0,0,0,0],"sum_hessian":[7.713188E2,7.737371E1,6.9394507E2,3.533695E1,4.2036762E1,4.2348485E0,6.897102E2,2.9657907E1,5.679041E0,3.405615E1,7.980613E0,1.0715942E0,3.163254E0,6.775273E2,1.2182927E1,8.169921E0,2.1487986E1,3.8547535E0,1.8242873E0,3.2177708E1,1.8784422E0,1.4204102E0,6.560203E0,2.4223389E2,4.352934E2,6.4915733E0,5.6913533E0],"tree_param":{"num_deleted":"0","num_feature":"16","num_nodes":"27","size_leaf_vector":"1"}},{"base_weights":[4.7431972E-2,1.17100075E-1,-1.3347031E-1,1.9497357E-1,-1.2122317E-1,-2.3032977E-1,1.7095043E-1,2.261015E-1,-2.77973E-1,-2.0351088E-1,3.2778725E-1,-3.1053668E-1,1.4698796E-1,-6.1433315E-1,3.2003596E-1,2.7636757E-2,8.6781E-3,-2.6513463E-2,1.3924769E-2,1.0620019E-2,-1.4815603E-2,-1.28069315E-2,3.9019447E-2,-3.258156E-2,-1.020016E-2,3.1061778E-2,-6.654378E-3,-3.8789373E-2,1.0260737E-2,7.662434E-3,3.754148E-2],"categories":[],"categories_nodes":[],"categories_segments":[],"categories_sizes":[],"default_left":[0,0,0,0,0,0,0,0,0,0,0,0,0,0,0,0,0,0,0,0,0,0,0,0,0,0,0,0,0,0,0],"id":26,"left_children":[1,3,5,7,9,11,13,15,17,19,21,23,25,27,29,-1,-1,-1,-1,-1,-1,-1,-1,-1,-1,-1,-1,-1,-1,-1,-1],"loss_changes":[9.693333E0,1.0330769E1,6.3699245E0,6.2581224E0,5.182098E0,5.0016127E0,6.443948E0,6.6117535E0,3.9458923E0,4.616737E0,6.081791E0,4.703041E0,4.0548654E0,1.4156697E0,3.0699153E0,0E0,0E0,0E0,0E0,0E0,0E0,0E0,0E0,0E0,0E0,0E0,0E0,0E0,0E0,0E0,0E0],"parents":[2147483647,0,0,1,1,2,2,3,3,4,4,5,5,6,6,7,7,8,8,9,9,10,10,11,11,12,12,13,13,14,14],"right_children":[2,4,6,8,10,12,14,16,18,20,22,24,26,28,30,-1,-1,-1,-1,-1,-1,-1,-1,-1,-1,-1,-1,-1,-1,-1,-1],"split_conditions":[5.562674E1,1.8571428E0,2E0,2.7777777E0,0E0,5E-1,7.242294E1,7E-1,2E0,7.1428573E-1,2.2222223E0,6.25E-1,1.1111112E0,7E-1,6E0,2.7636757E-2,8.6781E-3,-2.6513463E-2,1.3924769E-2,1.0620019E-2,-1.4815603E-2,-1.28069315E-2,3.9019447E-2,-3.258156E-2,-1.020016E-2,3.1061778E-2,-6.654378E-3,-3.8789373E-2,1.0260737E-2,7.662434E-3,3.754148E-2],"split_indices":[0,6,14,9,0,12,0,6,13,10,6,9,10,11,13,0,0,0,0,0,0,0,0,0,0,0,0,0,0,0,0],"split_type":[0,0,0,0,0,0,0,0,0,0,0,0,0,0,0,0,0,0,0,0,0,0,0,0,0,0,0,0,0,0,0],"sum_hessian":[7.6576154E2,5.532326E2,2.125289E2,4.1718716E2,1.3604546E2,1.6150647E2,5.1022446E1,3.921593E2,2.5027857E1,1.15667786E2,2.0377674E1,1.3341231E2,2.8094149E1,7.3941193E0,4.3628326E1,5.2360153E1,3.3979913E2,1.7268942E1,7.7589154E0,2.0747883E1,9.49199E1,9.182259E0,1.1195416E1,2.9924929E1,1.0348738E2,9.752774E0,1.8341375E1,6.2441E0,1.1500194E0,3.2917496E1,1.071083E1],"tree_param":{"num_deleted":"0","num_feature":"16","num_nodes":"31","size_leaf_vector":"1"}},{"base_weights":[1.3777301E-2,4.772408E-2,-3.3557177E-1,2.2219697E-2,4.621722E-1,-4.8904985E-1,2.183502E-1,4.181804E-2,-4.3465996E-1,-1.8456821E-1,7.454197E-1,6.9850105E-1,-5.563472E-1,-1.1527246E-1,8.8161665E-1,8.101611E-3,-1.5312651E-3,-3.2321256E-2,3.8745116E-2,2.8993282E-2,-2.7601397E-2,5.0668746E-2,7.331021E-3,-4.809486E-3,5.502621E-2,-3.2108422E-2,1.7347565E-2,3.2005556E-2,-3.2915127E-2,-2.816203E-2,7.568829E-2],"categories":[],"categories_nodes":[],"categories_segments":[],"categories_sizes":[],"default_left":[0,0,0,0,0,0,0,0,0,0,0,0,0,0,0,0,0,0,0,0,0,0,0,0,0,0,0,0,0,0,0],"id":27,"left_children":[1,3,5,7,9,11,13,15,17,19,21,23,25,27,29,-1,-1,-1,-1,-1,-1,-1,-1,-1,-1,-1,-1,-1,-1,-1,-1],"loss_changes":[9.29382E0,7.5289564E0,6.061395E0,6.0617423E0,7.772027E0,4.9638214E0,3.714418E0,5.647069E0,7.8854127E0,4.351248E0,4.433258E0,1.3104831E0,4.4205513E0,5.5694194E0,6.3577485E0,0E0,0E0,0E0,0E0,0E0,0E0,0E0,0E0,0E0,0E0,0E0,0E0,0E0,0E0,0E0,0E0],"parents":[2147483647,0,0,1,1,2,2,3,3,4,4,5,5,6,6,7,7,8,8,9,9,10,10,11,11,12,12,13,13,14,14],"right_children":[2,4,6,8,10,12,14,16,18,20,22,24,26,28,30,-1,-1,-1,-1,-1,-1,-1,-1,-1,-1,-1,-1,-1,-1,-1,-1],"split_conditions":[1.6136029E2,8E0,2E0,3.4444444E0,1.1E0,2.2222222E-1,2.5506413E2,-4.0157513E1,1.484E3,1E1,1.7142857E0,7.1428573E-1,5.555556E-1,1.7313701E3,1E0,8.101611E-3,-1.5312651E-3,-3.2321256E-2,3.8745116E-2,2.8993282E-2,-2.7601397E-2,5.0668746E-2,7.331021E-3,-4.809486E-3,5.502621E-2,-3.2108422E-2,1.7347565E-2,3.2005556E-2,-3.2915127E-2,-2.816203E-2,7.568829E-2],"split_indices":[0,13,14,6,5,3,0,0,1,13,5,9,12,1,9,0,0,0,0,0,0,0,0,0,0,0,0,0,0,0,0],"split_type":[0,0,0,0,0,0,0,0,0,0,0,0,0,0,0,0,0,0,0,0,0,0,0,0,0,0,0,0,0,0,0],"sum_hessian":[7.8014966E2,7.122357E2,6.791394E1,6.7243567E2,3.9800045E1,5.3316833E1,1.4597103E1,6.460839E2,2.6351763E1,1.2281108E1,2.7518938E1,2.1048567E0,5.1211975E1,1.0536538E1,4.0605655E0,2.4224382E2,4.0384012E2,2.3019892E1,3.331871E0,3.7054753E0,8.575633E0,1.8294058E1,9.224879E0,1.0904454E0,1.0144113E0,4.716456E1,4.047419E0,4.294498E0,6.2420397E0,1.2856221E0,2.7749434E0],"tree_param":{"num_deleted":"0","num_feature":"16","num_nodes":"31","size_leaf_vector":"1"}},{"base_weights":[-1.3176055E-2,-2.3280077E-1,4.418948E-2,4.3689225E-2,-3.8145897E-1,-8.729332E-1,5.734241E-2,-9.320415E-2,1.3103429E0,-7.1070045E-1,-1.979815E-1,-5.602223E-3,-4.782652E-2,-5.369663E-4,2.34302E-1,2.8236926E-2,-1.2754127E-2,-1.1020775E-2,9.128734E-2,-2.1678584E-2,-5.3210314E-2,-3.0123863E-2,1.4757399E-3,-6.716579E-4,4.0184405E-2,2.0669265E-2,-1.5318181E-3],"categories":[],"categories_nodes":[],"categories_segments":[],"categories_sizes":[],"default_left":[0,0,0,0,0,0,0,0,0,0,0,0,0,0,0,0,0,0,0,0,0,0,0,0,0,0,0],"id":28,"left_children":[1,3,5,7,9,11,13,15,17,19,21,-1,-1,23,25,-1,-1,-1,-1,-1,-1,-1,-1,-1,-1,-1,-1],"loss_changes":[9.781462E0,6.6332655E0,7.5042925E0,1.0164396E1,6.1144495E0,3.9900112E-1,6.2333994E0,5.8981028E0,5.1116962E0,2.922104E0,6.4055967E0,0E0,0E0,4.7878804E0,7.1356783E0,0E0,0E0,0E0,0E0,0E0,0E0,0E0,0E0,0E0,0E0,0E0,0E0],"parents":[2147483647,0,0,1,1,2,2,3,3,4,4,5,5,6,6,7,7,8,8,9,9,10,10,13,13,14,14],"right_children":[2,4,6,8,10,12,14,16,18,20,22,-1,-1,24,26,-1,-1,-1,-1,-1,-1,-1,-1,-1,-1,-1,-1],"split_conditions":[1E0,3E-1,-3.423943E2,3.75E-1,1.4255547E3,4.2857143E-1,1.6325934E3,1E-1,1E-1,1.3926748E3,2.7586887E1,-5.602223E-3,-4.782652E-2,2.8332642E2,2E0,2.8236926E-2,-1.2754127E-2,-1.1020775E-2,9.128734E-2,-2.1678584E-2,-5.3210314E-2,-3.0123863E-2,1.4757399E-3,-6.716579E-4,4.0184405E-2,2.0669265E-2,-1.5318181E-3],"split_indices":[9,3,0,7,2,10,2,4,3,2,0,0,0,0,14,0,0,0,0,0,0,0,0,0,0,0,0],"split_type":[0,0,0,0,0,0,0,0,0,0,0,0,0,0,0,0,0,0,0,0,0,0,0,0,0,0,0],"sum_hessian":[7.736502E2,1.5927528E2,6.143749E2,5.606288E1,1.0321241E2,7.3001604E0,6.070747E2,5.184894E1,4.2139397E0,3.539233E1,6.782008E1,1.0701603E0,6.23E0,4.5857947E2,1.4849527E2,9.500772E0,4.2348167E1,1.2776909E0,2.9362488E0,2.1711477E1,1.3680851E1,2.3522995E1,4.429709E1,4.527936E2,5.7858496E0,8.810251E1,6.0392754E1],"tree_param":{"num_deleted":"0","num_feature":"16","num_nodes":"27","size_leaf_vector":"1"}},{"base_weights":[-7.831237E-3,6.0774107E-2,-1.9350052E-1,-6.870001E-1,7.595062E-2,-2.8313932E-1,2.4305439E-1,-4.7876E-2,1.7102363E-2,9.65047E-2,-2.3967616E-1,-3.3890465E-1,4.2933944E-1,-2.0418291E-1,3.994411E-1,2.7130986E-2,-2.0524805E-2,-4.19577E-3,6.7125047E-3,-2.0231182E-2,2.390001E-2,-2.172318E-2,-8.519558E-3,-3.1339135E-2,3.314007E-2,3.7043385E-2,-3.6534872E-2,-2.4454443E-2,2.5784722E-2],"categories":[],"categories_nodes":[],"categories_segments":[],"categories_sizes":[],"default_left":[0,0,0,0,0,0,0,0,0,0,0,0,0,0,0,0,0,0,0,0,0,0,0,0,0,0,0,0,0],"id":29,"left_children":[1,3,5,7,9,11,13,-1,15,17,19,21,23,25,27,-1,-1,-1,-1,-1,-1,-1,-1,-1,-1,-1,-1,-1,-1],"loss_changes":[9.833501E0,6.476946E0,8.253433E0,2.1892867E0,3.6284928E0,7.1111403E0,2.6603346E0,0E0,1.374114E0,3.566041E0,4.3505044E0,2.493311E0,3.8912928E0,5.983838E0,3.2079082E0,0E0,0E0,0E0,0E0,0E0,0E0,0E0,0E0,0E0,0E0,0E0,0E0,0E0,0E0],"parents":[2147483647,0,0,1,1,2,2,3,3,4,4,5,5,6,6,8,8,9,9,10,10,11,11,12,12,13,13,14,14],"right_children":[2,4,6,8,10,12,14,-1,16,18,20,22,24,26,28,-1,-1,-1,-1,-1,-1,-1,-1,-1,-1,-1,-1,-1,-1],"split_conditions":[5.7111805E1,-3.1174423E2,3.3333334E-1,1.3859929E3,2.7142856E0,1.7888708E3,2E-1,-4.7876E-2,1.7986449E3,1E0,2E0,3.75E-1,1.45747E3,1E0,1.539893E3,2.7130986E-2,-2.0524805E-2,-4.19577E-3,6.7125047E-3,-2.0231182E-2,2.390001E-2,-2.172318E-2,-8.519558E-3,-3.1339135E-2,3.314007E-2,3.7043385E-2,-3.6534872E-2,-2.4454443E-2,2.5784722E-2],"split_indices":[0,0,8,1,9,1,4,0,2,9,13,7,2,13,1,0,0,0,0,0,0,0,0,0,0,0,0,0,0],"split_type":[0,0,0,0,0,0,0,0,0,0,0,0,0,0,0,0,0,0,0,0,0,0,0,0,0,0,0,0,0],"sum_hessian":[7.6910254E2,5.623293E2,2.067733E2,9.864943E0,5.524643E2,1.7198613E2,3.4787167E1,6.7367673E0,3.1281753E0,5.1966437E2,3.279994E1,1.602314E2,1.1754731E1,8.893874E0,2.5893291E1,1.2223814E0,1.9057939E0,8.959106E1,4.3007333E2,2.720221E1,5.597728E0,1.0073839E2,5.949301E1,1.6705394E0,1.0084191E1,2.9636638E0,5.9302106E0,2.4392602E0,2.3454031E1],"tree_param":{"num_deleted":"0","num_feature":"16","num_nodes":"29","size_leaf_vector":"1"}},{"base_weights":[-1.5139547E-3,-4.3231943E-1,1.9530611E-2,-5.1815444E-1,4.1900104E-1,9.387807E-2,-1.2723348E-1,-7.156823E-1,-9.678409E-2,4.1571166E-2,-1.0368551E-2,6.0582977E-2,3.7601435E-1,-5.0244577E-2,-4.2162204E-1,-1.081594E-2,-4.442192E-2,-4.0291738E-2,2.8707797E-2,1.2118107E-2,-5.95082E-4,-5.8120554E-3,3.0175582E-2,2.6633022E-3,-1.698673E-2,-2.5120145E-2,4.467698E-3],"categories":[],"categories_nodes":[],"categories_segments":[],"categories_sizes":[],"default_left":[0,0,0,0,0,0,0,0,0,0,0,0,0,0,0,0,0,0,0,0,0,0,0,0,0,0,0],"id":30,"left_children":[1,3,5,7,9,11,13,15,17,-1,-1,19,21,23,25,-1,-1,-1,-1,-1,-1,-1,-1,-1,-1,-1,-1],"loss_changes":[7.0841613E0,2.984963E0,8.148098E0,2.7035103E0,1.3339341E0,4.6197534E0,5.6609545E0,1.672595E0,6.6405425E0,0E0,0E0,5.8666925E0,5.92925E0,6.044342E0,2.2082415E0,0E0,0E0,0E0,0E0,0E0,0E0,0E0,0E0,0E0,0E0,0E0,0E0],"parents":[2147483647,0,0,1,1,2,2,3,3,4,4,5,5,6,6,7,7,8,8,11,11,12,12,13,13,14,14],"right_children":[2,4,6,8,10,12,14,16,18,-1,-1,20,22,24,26,-1,-1,-1,-1,-1,-1,-1,-1,-1,-1,-1,-1],"split_conditions":[-2.2527135E2,1.4285715E0,3.925514E1,3E0,2.4285715E0,2.0268354E1,2.125E0,1.6353446E3,1.3998578E3,4.1571166E-2,-1.0368551E-2,-9.7633804E1,1E-1,2.1E0,1.4694884E3,-1.081594E-2,-4.442192E-2,-4.0291738E-2,2.8707797E-2,1.2118107E-2,-5.95082E-4,-5.8120554E-3,3.0175582E-2,2.6633022E-3,-1.698673E-2,-2.5120145E-2,4.467698E-3],"split_indices":[0,10,0,13,6,0,10,2,1,0,0,0,12,5,2,0,0,0,0,0,0,0,0,0,0,0,0],"split_type":[0,0,0,0,0,0,0,0,0,0,0,0,0,0,0,0,0,0,0,0,0,0,0,0,0,0,0],"sum_hessian":[7.7849194E2,3.4892353E1,7.4359955E2,3.222979E1,2.6625643E0,4.9392737E2,2.4967221E2,2.1230001E1,1.0999789E1,1.3093824E0,1.3531818E0,4.4342105E2,5.050632E1,1.9930556E2,5.0366653E1,6.325099E0,1.49049015E1,5.201381E0,5.7984085E0,1.2540672E2,3.180143E2,1.619575E1,3.4310574E1,1.47713E2,5.1592556E1,4.351282E1,6.853831E0],"tree_param":{"num_deleted":"0","num_feature":"16","num_nodes":"27","size_leaf_vector":"1"}},{"base_weights":[8.760901E-3,-1.5574522E-1,7.36595E-2,-4.7045887E-2,-3.8527042E-1,-2.0281723E-1,1.0985125E-1,3.559938E-2,-5.314217E-1,-4.3443084E-1,3.924615E-2,-3.0722672E-1,3.304155E-1,3.8510314E-1,4.9650647E-2,-8.8337855E-4,4.589227E-2,3.0833794E-2,-3.5190243E-2,-2.5463713E-2,4.219868E-3,-1.9959075E-2,1.08612105E-2,-3.137568E-2,2.6898617E-2,2.591506E-2,-1.0633822E-2,-2.973706E-2,3.887019E-3],"categories":[],"categories_nodes":[],"categories_segments":[],"categories_sizes":[],"default_left":[0,0,0,0,0,0,0,0,0,0,0,0,0,0,0,0,0,0,0,0,0,0,0,0,0,0,0,0,0],"id":31,"left_children":[1,3,5,7,9,11,13,15,17,19,-1,21,23,25,27,-1,-1,-1,-1,-1,-1,-1,-1,-1,-1,-1,-1,-1,-1],"loss_changes":[8.311757E0,5.4684267E0,5.618333E0,6.080682E0,4.5719233E0,3.7785258E0,8.165567E0,6.1598644E0,5.030935E0,2.7322578E0,0E0,2.7943158E0,2.7705584E0,7.2138834E0,7.4452386E0,0E0,0E0,0E0,0E0,0E0,0E0,0E0,0E0,0E0,0E0,0E0,0E0,0E0,0E0],"parents":[2147483647,0,0,1,1,2,2,3,3,4,4,5,5,6,6,7,7,8,8,9,9,11,11,12,12,13,13,14,14],"right_children":[2,4,6,8,10,12,14,16,18,20,-1,22,24,26,28,-1,-1,-1,-1,-1,-1,-1,-1,-1,-1,-1,-1,-1,-1],"split_conditions":[1.4969735E3,1.1527631E2,-1.7520079E2,1.4444444E0,5E-1,2.5E-1,-9.7633804E1,1.0273093E2,1.3944714E3,1.375E0,3.924615E-2,2.3333333E0,1E0,1.5655245E3,1.4600427E3,-8.8337855E-4,4.589227E-2,3.0833794E-2,-3.5190243E-2,-2.5463713E-2,4.219868E-3,-1.9959075E-2,1.08612105E-2,-3.137568E-2,2.6898617E-2,2.591506E-2,-1.0633822E-2,-2.973706E-2,3.887019E-3],"split_indices":[2,0,0,9,8,12,0,0,1,9,0,9,6,1,1,0,0,0,0,0,0,0,0,0,0,0,0,0,0],"split_type":[0,0,0,0,0,0,0,0,0,0,0,0,0,0,0,0,0,0,0,0,0,0,0,0,0,0,0,0,0],"sum_hessian":[7.754184E2,2.1877185E2,5.5664655E2,1.4968904E2,6.90828E1,6.363313E1,4.930134E2,1.2905855E2,2.0630495E1,6.720271E1,1.8800907E0,5.3745308E1,9.887822E0,8.70238E1,4.059896E2,1.23096375E2,5.9621706E0,2.188529E0,1.8441967E1,5.8754696E1,8.448018E0,4.6032475E1,7.712834E0,1.2203923E0,8.667429E0,7.13295E1,1.5694301E1,1.5694351E1,3.9029526E2],"tree_param":{"num_deleted":"0","num_feature":"16","num_nodes":"29","size_leaf_vector":"1"}},{"base_weights":[-6.854273E-3,2.669653E-2,-3.544122E-1,-1.6384126E-1,7.5369924E-2,-5.142949E-1,1.5152481E-1,-5.140511E-2,-4.2490345E-1,-3.210825E-1,9.743109E-2,3.4354702E-1,-5.770146E-1,-2.427215E-1,8.993253E-1,2.5279447E-3,-3.31532E-2,2.5186946E-3,-3.1244406E-2,-1.9137172E-3,-4.169504E-2,1.5991477E-2,2.6425503E-3,-1.3753583E-2,4.2298738E-2,-5.048069E-2,-2.292725E-2,1.2449211E-2,-2.7874922E-2,5.7747602E-2,1.6628959E-3],"categories":[],"categories_nodes":[],"categories_segments":[],"categories_sizes":[],"default_left":[0,0,0,0,0,0,0,0,0,0,0,0,0,0,0,0,0,0,0,0,0,0,0,0,0,0,0,0,0,0,0],"id":32,"left_children":[1,3,5,7,9,11,13,15,17,19,21,23,25,27,29,-1,-1,-1,-1,-1,-1,-1,-1,-1,-1,-1,-1,-1,-1,-1,-1],"loss_changes":[8.992578E0,6.543532E0,5.6084137E0,4.1832285E0,4.9573936E0,3.0912457E0,5.4751167E0,6.4179654E0,4.137302E0,4.2949476E0,5.2590528E0,1.740915E0,1.814228E0,2.1606102E0,1.3474069E0,0E0,0E0,0E0,0E0,0E0,0E0,0E0,0E0,0E0,0E0,0E0,0E0,0E0,0E0,0E0,0E0],"parents":[2147483647,0,0,1,1,2,2,3,3,4,4,5,5,6,6,7,7,8,8,9,9,10,10,11,11,12,12,13,13,14,14],"right_children":[2,4,6,8,10,12,14,16,18,20,22,24,26,28,30,-1,-1,-1,-1,-1,-1,-1,-1,-1,-1,-1,-1,-1,-1,-1,-1],"split_conditions":[1.6136029E2,9E-1,2E0,1.478766E3,1.4275258E3,1E0,1.4285715E0,3.625E0,1.6666667E-1,2.2222222E-1,-9.7633804E1,7.1428573E-1,1.766211E2,1.7240483E3,2.5555556E0,2.5279447E-3,-3.31532E-2,2.5186946E-3,-3.1244406E-2,-1.9137172E-3,-4.169504E-2,1.5991477E-2,2.6425503E-3,-1.3753583E-2,4.2298738E-2,-5.048069E-2,-2.292725E-2,1.2449211E-2,-2.7874922E-2,5.7747602E-2,1.6628959E-3],"split_indices":[0,5,14,1,1,5,9,6,12,3,0,9,0,1,5,0,0,0,0,0,0,0,0,0,0,0,0,0,0,0,0],"split_type":[0,0,0,0,0,0,0,0,0,0,0,0,0,0,0,0,0,0,0,0,0,0,0,0,0,0,0,0,0,0,0],"sum_hessian":[7.684599E2,7.020716E2,6.6388275E1,1.4213155E2,5.5994006E2,5.0427692E1,1.59605875E1,1.0059984E2,4.1531708E1,2.8444477E1,5.314956E2,2.9781504E0,4.7449543E1,1.1114215E1,4.8463726E0,8.740532E1,1.3194522E1,1.2632312E1,2.8899397E1,1.9372768E1,9.07171E0,8.720268E1,4.442929E2,1.6389505E0,1.3391998E0,7.7750993E0,3.9674442E1,4.4603405E0,6.653874E0,3.355601E0,1.4907715E0],"tree_param":{"num_deleted":"0","num_feature":"16","num_nodes":"31","size_leaf_vector":"1"}},{"base_weights":[-1.2777735E-2,1.6142279E-2,-2.3367268E-1,2.8959095E-2,-3.5224807E-1,1.22811794E-1,-3.2792774E-1,1.7521845E-1,5.3892657E-3,-5.8260417E-1,5.7741386E-1,9.0675616E-1,-2.3344669E-1,-3.756504E-1,3.521185E-1,-2.6800618E-2,1.2939754E-2,2.2283678E-3,-9.982731E-3,3.910342E-3,-3.9881084E-2,4.465268E-2,-1.0254162E-2,-2.9757941E-2,7.707059E-2,4.7796883E-2,-2.428166E-2,-2.1295339E-2,1.224281E-2,3.9306324E-2,-2.7554292E-2],"categories":[],"categories_nodes":[],"categories_segments":[],"categories_sizes":[],"default_left":[0,0,0,0,0,0,0,0,0,0,0,0,0,0,0,0,0,0,0,0,0,0,0,0,0,0,0,0,0,0,0],"id":33,"left_children":[1,3,5,7,9,11,13,15,17,19,21,23,25,27,29,-1,-1,-1,-1,-1,-1,-1,-1,-1,-1,-1,-1,-1,-1,-1,-1],"loss_changes":[4.9386563E0,3.245833E0,3.067336E0,2.282722E0,5.455405E0,5.848756E0,2.5086446E0,5.6713996E0,4.609769E0,2.832118E0,1.5946562E0,7.5672684E0,5.138468E0,2.2533808E0,2.783158E0,0E0,0E0,0E0,0E0,0E0,0E0,0E0,0E0,0E0,0E0,0E0,0E0,0E0,0E0,0E0,0E0],"parents":[2147483647,0,0,1,1,2,2,3,3,4,4,5,5,6,6,7,7,8,8,9,9,10,10,11,11,12,12,13,13,14,14],"right_children":[2,4,6,8,10,12,14,16,18,20,22,24,26,28,30,-1,-1,-1,-1,-1,-1,-1,-1,-1,-1,-1,-1,-1,-1,-1,-1],"split_conditions":[8.5714287E-1,3.5E0,1.5046382E3,7E-1,1.4832637E3,1.5E0,6.666667E-1,1.5148376E3,1.6253252E3,2E-1,1E0,1E0,6.25E-1,4.2857143E-1,1.7313701E3,-2.6800618E-2,1.2939754E-2,2.2283678E-3,-9.982731E-3,3.910342E-3,-3.9881084E-2,4.465268E-2,-1.0254162E-2,-2.9757941E-2,7.707059E-2,4.7796883E-2,-2.428166E-2,-2.1295339E-2,1.224281E-2,3.9306324E-2,-2.7554292E-2],"split_indices":[11,6,1,6,1,6,7,1,1,7,15,5,5,4,1,0,0,0,0,0,0,0,0,0,0,0,0,0,0,0,0],"split_type":[0,0,0,0,0,0,0,0,0,0,0,0,0,0,0,0,0,0,0,0,0,0,0,0,0,0,0,0,0,0,0],"sum_hessian":[7.706945E2,6.827039E2,8.79906E1,6.6108594E2,2.161802E1,1.830486E1,6.968574E1,9.040972E1,5.706762E2,1.7773893E1,3.8441262E0,4.995177E0,1.3309683E1,6.574356E1,3.9421804E0,8.653024E0,8.17567E1,4.8011395E2,9.056224E1,4.597834E0,1.317606E1,2.588186E0,1.2559401E0,1.5115162E0,3.4836605E0,1.5961031E0,1.1713579E1,6.1252953E1,4.490607E0,2.79403E0,1.1481506E0],"tree_param":{"num_deleted":"0","num_feature":"16","num_nodes":"31","size_leaf_vector":"1"}},{"base_weights":[3.984117E-3,-1.1474325E-1,7.805059E-2,-1.4532404E-1,2.0852713E-1,1.0309119E-1,-4.9153653E-1,2.6746549E-2,-2.5636145E-1,-4.972175E-1,6.06559E-1,2.1236077E-1,-4.1206747E-2,-6.552676E-1,3.9672947E-1,5.7771276E-3,-1.9702977E-2,-1.009428E-2,-3.888015E-2,-4.2749174E-2,1.2282282E-4,5.132504E-2,-1.7075228E-3,1.453671E-2,-2.3451955E-3,1.8634542E-4,-2.5622955E-2,-7.1118744E-3,-4.4865426E-2,3.2556135E-2,-6.936235E-3],"categories":[],"categories_nodes":[],"categories_segments":[],"categories_sizes":[],"default_left":[0,0,0,0,0,0,0,0,0,0,0,0,0,0,0,0,0,0,0,0,0,0,0,0,0,0,0,0,0,0,0],"id":34,"left_children":[1,3,5,7,9,11,13,15,17,19,21,23,25,27,29,-1,-1,-1,-1,-1,-1,-1,-1,-1,-1,-1,-1,-1,-1,-1,-1],"loss_changes":[6.7225385E0,2.949037E0,6.789974E0,5.1539087E0,7.7558208E0,7.142333E0,3.3107896E0,4.064401E0,4.414668E0,1.8265452E0,4.7071776E0,5.253708E0,4.155309E0,1.9844847E0,6.885327E-1,0E0,0E0,0E0,0E0,0E0,0E0,0E0,0E0,0E0,0E0,0E0,0E0,0E0,0E0,0E0,0E0],"parents":[2147483647,0,0,1,1,2,2,3,3,4,4,5,5,6,6,7,7,8,8,9,9,10,10,11,11,12,12,13,13,14,14],"right_children":[2,4,6,8,10,12,14,16,18,20,22,24,26,28,30,-1,-1,-1,-1,-1,-1,-1,-1,-1,-1,-1,-1,-1,-1,-1,-1],"split_conditions":[3.75E-1,1.5895065E3,2.857143E0,1.4862501E3,1E-1,1.75E0,1.4832637E3,1.5063995E3,1.625E0,2E0,1.1111112E0,1E0,8.5714287E-1,1.3890618E3,1.484097E3,5.7771276E-3,-1.9702977E-2,-1.009428E-2,-3.888015E-2,-4.2749174E-2,1.2282282E-4,5.132504E-2,-1.7075228E-3,1.453671E-2,-2.3451955E-3,1.8634542E-4,-2.5622955E-2,-7.1118744E-3,-4.4865426E-2,3.2556135E-2,-6.936235E-3],"split_indices":[7,2,6,1,11,9,1,2,6,13,9,15,7,1,1,0,0,0,0,0,0,0,0,0,0,0,0,0,0,0,0],"split_type":[0,0,0,0,0,0,0,0,0,0,0,0,0,0,0,0,0,0,0,0,0,0,0,0,0,0,0,0,0,0,0],"sum_hessian":[7.6144293E2,2.9221048E2,4.6923248E2,2.6771118E2,2.44993E1,4.5064923E2,1.8583254E1,1.0544526E2,1.6226591E2,8.69988E0,1.579942E1,2.560488E2,1.9460042E2,1.602321E1,2.560044E0,8.7970406E1,1.7474854E1,1.4879596E2,1.3469953E1,4.4482875E0,4.251592E0,8.998386E0,6.801034E0,1.9647429E2,5.957451E1,1.7901918E2,1.5581245E1,5.8996954E0,1.0123515E1,1.5158416E0,1.0442026E0],"tree_param":{"num_deleted":"0","num_feature":"16","num_nodes":"31","size_leaf_vector":"1"}},{"base_weights":[-8.844997E-3,-1.09511666E-1,8.233246E-2,-1.6166851E-1,1.8146873E-1,-2.5573978E-1,1.3776901E-1,-1.3218701E-1,-7.685066E-1,1.2728239E0,8.2082234E-2,3.2246348E-2,-5.43793E-1,1.5956002E-1,-6.284097E-1,-4.8663444E-3,-2.9572992E-2,-2.9766073E-3,-4.3124314E-2,8.3546326E-2,5.842499E-3,-2.2950124E-3,3.4193423E-2,-4.4413917E-2,1.3339752E-2,4.418952E-3,-3.389303E-2,5.0327968E-2,6.8724095E-3,1.2661424E-3,-4.51152E-2],"categories":[],"categories_nodes":[],"categories_segments":[],"categories_sizes":[],"default_left":[0,0,0,0,0,0,0,0,0,0,0,0,0,0,0,0,0,0,0,0,0,0,0,0,0,0,0,0,0,0,0],"id":35,"left_children":[1,3,5,7,9,11,13,15,17,19,21,23,25,27,29,-1,-1,-1,-1,-1,-1,-1,-1,-1,-1,-1,-1,-1,-1,-1,-1],"loss_changes":[7.169048E0,5.676959E0,7.7356443E0,5.492732E0,6.0391884E0,4.8605747E0,6.046665E0,4.7604403E0,8.762884E-1,1.8536816E0,4.2028713E0,6.9530272E0,2.5662308E0,6.2461624E0,1.8373792E0,0E0,0E0,0E0,0E0,0E0,0E0,0E0,0E0,0E0,0E0,0E0,0E0,0E0,0E0,0E0,0E0],"parents":[2147483647,0,0,1,1,2,2,3,3,4,4,5,5,6,6,7,7,8,8,9,9,10,10,11,11,12,12,13,13,14,14],"right_children":[2,4,6,8,10,12,14,16,18,20,22,24,26,28,30,-1,-1,-1,-1,-1,-1,-1,-1,-1,-1,-1,-1,-1,-1,-1,-1],"split_conditions":[1.53748E3,5E-1,8.888889E-1,2E0,1.412189E3,1.25E-1,3.2222223E0,1.5250353E3,2.857143E-1,1E-1,2E0,-3.1174423E2,1.5515891E3,1.5412697E3,1.5406274E3,-4.8663444E-3,-2.9572992E-2,-2.9766073E-3,-4.3124314E-2,8.3546326E-2,5.842499E-3,-2.2950124E-3,3.4193423E-2,-4.4413917E-2,1.3339752E-2,4.418952E-3,-3.389303E-2,5.0327968E-2,6.8724095E-3,1.2661424E-3,-4.51152E-2],"split_indices":[2,7,5,9,1,3,9,2,7,11,13,0,2,2,1,0,0,0,0,0,0,0,0,0,0,0,0,0,0,0,0],"split_type":[0,0,0,0,0,0,0,0,0,0,0,0,0,0,0,0,0,0,0,0,0,0,0,0,0,0,0,0,0,0,0],"sum_hessian":[7.7809357E2,3.6965994E2,4.0843362E2,3.1403693E2,5.5623016E1,5.6775597E1,3.5165802E2,3.012293E2,1.2807625E1,3.164431E0,5.2458584E1,2.9057224E1,2.7718372E1,3.430878E2,8.5702E0,2.816678E2,1.956152E1,1.7858123E0,1.1021812E1,1.8567755E0,1.3076557E0,4.4401302E1,8.0572815E0,5.0514016E0,2.4005823E1,4.939274E0,2.2779099E1,7.0297465E0,3.3605807E2,2.9324133E0,5.6377864E0],"tree_param":{"num_deleted":"0","num_feature":"16","num_nodes":"31","size_leaf_vector":"1"}},{"base_weights":[-3.065062E-3,-2.2014768E-1,4.6951488E-2,-1.4979824E-1,-6.0085225E-1,7.220523E-2,-4.6533647E-1,-2.1473505E-2,-3.8602075E-1,-7.2693396E-1,2.4894899E-1,-3.3259976E-1,8.960024E-2,-4.8922975E-2,-8.253176E-1,3.1721752E-2,-6.7443545E-3,-3.9552087E-3,-3.272033E-2,-1.412157E-2,-4.428851E-2,3.8384102E-2,-2.494236E-2,-3.6456033E-3,-3.8228597E-2,1.5251714E-2,1.5651862E-3,2.1420866E-2,-1.9634994E-2,-4.601686E-2,-8.186259E-3],"categories":[],"categories_nodes":[],"categories_segments":[],"categories_sizes":[],"default_left":[0,0,0,0,0,0,0,0,0,0,0,0,0,0,0,0,0,0,0,0,0,0,0,0,0,0,0,0,0,0,0],"id":36,"left_children":[1,3,5,7,9,11,13,15,17,19,21,23,25,27,29,-1,-1,-1,-1,-1,-1,-1,-1,-1,-1,-1,-1,-1,-1,-1,-1],"loss_changes":[8.359446E0,3.7261467E0,8.146645E0,3.7367218E0,2.6272635E0,4.2535276E0,4.3768287E0,6.2083235E0,3.5013037E0,1.0035667E0,2.1097863E0,2.7146008E0,7.197904E0,2.7663136E0,7.661247E-1,0E0,0E0,0E0,0E0,0E0,0E0,0E0,0E0,0E0,0E0,0E0,0E0,0E0,0E0,0E0,0E0],"parents":[2147483647,0,0,1,1,2,2,3,3,4,4,5,5,6,6,7,7,8,8,9,9,10,10,11,11,12,12,13,13,14,14],"right_children":[2,4,6,8,10,12,14,16,18,20,22,24,26,28,30,-1,-1,-1,-1,-1,-1,-1,-1,-1,-1,-1,-1,-1,-1,-1,-1],"split_conditions":[9E-1,1E0,2.7E0,-3.0530499E1,6.735843E1,1.4228242E3,1.5019113E3,1.2222222E0,1.4708627E3,1.4195638E3,1.0441171E2,2.2222222E-1,1.1666666E0,1.2E0,1E0,3.1721752E-2,-6.7443545E-3,-3.9552087E-3,-3.272033E-2,-1.412157E-2,-4.428851E-2,3.8384102E-2,-2.494236E-2,-3.6456033E-3,-3.8228597E-2,1.5251714E-2,1.5651862E-3,2.1420866E-2,-1.9634994E-2,-4.601686E-2,-8.186259E-3],"split_indices":[5,15,10,0,0,1,1,6,1,1,0,3,5,5,15,0,0,0,0,0,0,0,0,0,0,0,0,0,0,0,0],"split_type":[0,0,0,0,0,0,0,0,0,0,0,0,0,0,0,0,0,0,0,0,0,0,0,0,0,0,0,0,0,0,0],"sum_hessian":[7.6697974E2,1.4266791E2,6.243118E2,1.22180664E2,2.0487244E1,5.9620966E2,2.8102165E1,8.023203E1,4.194863E1,1.8029198E1,2.4580462E0,2.34445E1,5.7276514E2,1.3819784E1,1.4282382E1,1.0811947E1,6.942009E1,2.0475584E1,2.1473045E1,5.8434687E0,1.218573E1,1.4277513E0,1.0302948E0,1.5737069E1,7.707432E0,1.20629974E2,4.5213516E2,5.6313057E0,8.188478E0,1.1975753E1,2.3066285E0],"tree_param":{"num_deleted":"0","num_feature":"16","num_nodes":"31","size_leaf_vector":"1"}},{"base_weights":[-1.0520044E-3,1.744321E-2,-3.7041578E-1,2.7287781E-2,-6.0245085E-1,-1.3665381E-1,-7.66954E-1,4.8598614E-2,-2.1835765E-1,-8.0159837E-1,1.4301292E-2,-5.9894747E-1,1.3675229E-1,-4.4699285E-2,8.765287E-3,5.2491385E-5,1.0265256E-2,-1.8690122E-2,9.633044E-3,-4.8132353E-2,5.3296927E-3,1.3662641E-2,-3.7750132E-2,-1.1876081E-2,4.260373E-2],"categories":[],"categories_nodes":[],"categories_segments":[],"categories_sizes":[],"default_left":[0,0,0,0,0,0,0,0,0,0,0,0,0,0,0,0,0,0,0,0,0,0,0,0,0],"id":37,"left_children":[1,3,5,7,9,11,13,15,17,19,-1,21,23,-1,-1,-1,-1,-1,-1,-1,-1,-1,-1,-1,-1],"loss_changes":[5.2528844E0,4.4938326E0,3.2415943E0,3.7972324E0,2.381096E0,3.269178E0,1.8238626E0,4.9613667E0,3.8095725E0,1.5872726E0,0E0,1.6065636E0,4.818312E0,0E0,0E0,0E0,0E0,0E0,0E0,0E0,0E0,0E0,0E0,0E0,0E0],"parents":[2147483647,0,0,1,1,2,2,3,3,4,4,5,5,6,6,7,7,8,8,9,9,11,11,12,12],"right_children":[2,4,6,8,10,12,14,16,18,20,-1,22,24,-1,-1,-1,-1,-1,-1,-1,-1,-1,-1,-1,-1],"split_conditions":[2.75E0,4.1E0,1.5019113E3,1.6136029E2,7.5E-1,3.3333333E0,4.2857143E-1,6E-1,2E0,1.484E3,1.4301292E-2,-2.2004807E1,1.4675647E3,-4.4699285E-2,8.765287E-3,5.2491385E-5,1.0265256E-2,-1.8690122E-2,9.633044E-3,-4.8132353E-2,5.3296927E-3,1.3662641E-2,-3.7750132E-2,-1.1876081E-2,4.260373E-2],"split_indices":[10,6,1,0,5,10,4,3,14,1,0,0,1,0,0,0,0,0,0,0,0,0,0,0,0],"split_type":[0,0,0,0,0,0,0,0,0,0,0,0,0,0,0,0,0,0,0,0,0,0,0,0,0],"sum_hessian":[7.6600665E2,7.3084033E2,3.516633E1,7.208268E2,1.001352E1,2.339295E1,1.1773377E1,6.643911E2,5.6435642E1,8.29983E0,1.7136899E0,8.02972E0,1.536323E1,1.044242E1,1.3309573E0,5.108854E2,1.5350574E2,4.104753E1,1.5388114E1,6.9733205E0,1.3265101E0,1.0476803E0,6.98204E0,1.0743762E1,4.619468E0],"tree_param":{"num_deleted":"0","num_feature":"16","num_nodes":"25","size_leaf_vector":"1"}},{"base_weights":[1.5289487E-2,2.7854787E-2,-6.0220456E-1,-2.9287424E-2,1.1398875E-1,-7.6111525E-1,-6.11262E-2,5.81219E-2,-1.69038E-1,-5.0304854E-1,1.5540446E-1,-8.767388E-1,-1.542269E-1,1.499923E-2,-1.8692864E-2,4.7639247E-2,1.6574055E-3,-1.1315962E-2,1.7395765E-2,-3.442304E-2,-3.937693E-3,1.36252865E-2,-3.0257679E-3,-4.7343027E-2,-9.667471E-3,1.249871E-2,-2.3965472E-2],"categories":[],"categories_nodes":[],"categories_segments":[],"categories_sizes":[],"default_left":[0,0,0,0,0,0,0,0,0,0,0,0,0,0,0,0,0,0,0,0,0,0,0,0,0,0,0],"id":38,"left_children":[1,3,5,7,9,11,13,15,17,19,21,23,25,-1,-1,-1,-1,-1,-1,-1,-1,-1,-1,-1,-1,-1,-1],"loss_changes":[5.985042E0,3.7172904E0,1.2530694E0,5.5681877E0,7.812319E0,6.224785E-1,7.46848E-1,6.2266636E0,5.309612E0,1.4365067E0,7.1884127E0,1.8345976E-1,6.6620827E-1,0E0,0E0,0E0,0E0,0E0,0E0,0E0,0E0,0E0,0E0,0E0,0E0,0E0,0E0],"parents":[2147483647,0,0,1,1,2,2,3,3,4,4,5,5,6,6,7,7,8,8,9,9,10,10,11,11,12,12],"right_children":[2,4,6,8,10,12,14,16,18,20,22,24,26,-1,-1,-1,-1,-1,-1,-1,-1,-1,-1,-1,-1,-1,-1],"split_conditions":[4.1E0,1.5713333E3,3.125E0,1.4444444E0,1.4098911E3,1E0,5.555556E-1,3.3333334E-1,7.1428573E-1,3E0,2E0,1.6666667E-1,1.2222222E0,1.499923E-2,-1.8692864E-2,4.7639247E-2,1.6574055E-3,-1.1315962E-2,1.7395765E-2,-3.442304E-2,-3.937693E-3,1.36252865E-2,-3.0257679E-3,-4.7343027E-2,-9.667471E-3,1.249871E-2,-2.3965472E-2],"split_indices":[10,2,6,5,1,15,5,6,12,13,14,8,5,0,0,0,0,0,0,0,0,0,0,0,0,0,0],"split_type":[0,0,0,0,0,0,0,0,0,0,0,0,0,0,0,0,0,0,0,0,0,0,0,0,0,0,0],"sum_hessian":[7.6662506E2,7.5274005E2,1.3885065E1,4.5312314E2,2.9961688E2,1.0261379E1,3.6236858E0,2.79304E2,1.7381917E2,1.7793829E1,2.8182306E2,8.059017E0,2.2023625E0,1.7101325E0,1.9135534E0,6.071486E0,2.7323248E2,1.5723949E2,1.6579681E1,1.1732812E1,6.0610156E0,1.8246985E2,9.935321E1,6.784558E0,1.2744594E0,1.1362E0,1.0661625E0],"tree_param":{"num_deleted":"0","num_feature":"16","num_nodes":"27","size_leaf_vector":"1"}},{"base_weights":[-2.5613582E-2,6.1909663E-3,-2.8094196E-1,-1.8040603E-1,5.2748844E-2,-3.7746546E-1,1.9173424E-1,1.0516398E-1,-3.2898432E-1,2.2450218E-1,-4.888228E-3,-7.16325E-1,-2.181203E-1,-1.8517031E-1,9.060883E-1,2.5161574E-2,-1.0431599E-2,5.356725E-2,-1.9245898E-2,6.7976117E-3,3.8939267E-2,-3.9097397E-3,8.740696E-3,-1.8069996E-2,-4.3727424E-2,-1.7005844E-2,1.0247998E-2,3.9546512E-2,-2.5356475E-2,7.2069466E-2,3.007646E-3],"categories":[],"categories_nodes":[],"categories_segments":[],"categories_sizes":[],"default_left":[0,0,0,0,0,0,0,0,0,0,0,0,0,0,0,0,0,0,0,0,0,0,0,0,0,0,0,0,0,0,0],"id":39,"left_children":[1,3,5,7,9,11,13,15,17,19,21,23,25,27,29,-1,-1,-1,-1,-1,-1,-1,-1,-1,-1,-1,-1,-1,-1,-1,-1],"loss_changes":[6.0777183E0,5.806384E0,3.890705E0,5.715086E0,5.2952304E0,3.5099707E0,4.304398E0,6.00524E0,7.5235853E0,6.4373665E0,5.314192E0,7.345619E-1,2.650322E0,4.0896525E0,2.3393917E0,0E0,0E0,0E0,0E0,0E0,0E0,0E0,0E0,0E0,0E0,0E0,0E0,0E0,0E0,0E0,0E0],"parents":[2147483647,0,0,1,1,2,2,3,3,4,4,5,5,6,6,7,7,8,8,9,9,10,10,11,11,12,12,13,13,14,14],"right_children":[2,4,6,8,10,12,14,16,18,20,22,24,26,28,30,-1,-1,-1,-1,-1,-1,-1,-1,-1,-1,-1,-1,-1,-1,-1,-1],"split_conditions":[8.5714287E-1,9E-1,1E0,1.1111111E-1,1.2E0,8E-1,1.6903917E3,1.8571428E0,1.3498688E3,2E0,2.2222222E-1,1.6666667E-1,1.6166436E3,6.25E-1,1.7313701E3,2.5161574E-2,-1.0431599E-2,5.356725E-2,-1.9245898E-2,6.7976117E-3,3.8939267E-2,-3.9097397E-3,8.740696E-3,-1.8069996E-2,-4.3727424E-2,-1.7005844E-2,1.0247998E-2,3.9546512E-2,-2.5356475E-2,7.2069466E-2,3.007646E-3],"split_indices":[11,5,15,12,5,6,1,6,2,10,12,4,1,6,1,0,0,0,0,0,0,0,0,0,0,0,0,0,0,0,0],"split_type":[0,0,0,0,0,0,0,0,0,0,0,0,0,0,0,0,0,0,0,0,0,0,0,0,0,0,0,0,0,0,0],"sum_hessian":[7.4661053E2,6.652131E2,8.139751E1,1.3197295E2,5.332401E2,6.784522E1,1.3552285E1,4.531501E1,8.665793E1,1.3289178E2,4.0034833E2,2.0022572E1,4.782265E1,9.598922E0,3.9533641E0,1.9576105E1,2.5738905E1,2.2825387E0,8.437539E1,1.16196625E2,1.6695166E1,2.849535E2,1.1539483E2,7.6926575E0,1.2329913E1,3.7347515E1,1.0475137E1,1.8389015E0,7.76002E0,1.7745763E0,2.1787877E0],"tree_param":{"num_deleted":"0","num_feature":"16","num_nodes":"31","size_leaf_vector":"1"}},{"base_weights":[3.8747932E-3,-2.9665276E-1,3.547955E-2,-4.1472903E-1,3.3606365E-1,-7.233953E-1,4.6841506E-2,-8.406509E-2,-6.8184376E-1,-3.2897253E-2,5.8497304E-1,-4.351328E-2,1.0701736E-2,5.645847E-2,-5.232133E-1,3.9091554E-2,-8.452436E-3,-3.7939075E-2,1.8554107E-4,3.947551E-2,-1.5414613E-2,1.6093247E-3,1.3980808E-2,-3.8610823E-2,-1.904621E-3],"categories":[],"categories_nodes":[],"categories_segments":[],"categories_sizes":[],"default_left":[0,0,0,0,0,0,0,0,0,0,0,0,0,0,0,0,0,0,0,0,0,0,0,0,0],"id":40,"left_children":[1,3,5,7,9,11,13,15,17,-1,19,-1,-1,21,23,-1,-1,-1,-1,-1,-1,-1,-1,-1,-1],"loss_changes":[7.2608285E0,5.6437545E0,6.013524E0,5.388054E0,3.612918E0,1.6964579E0,3.7872858E0,2.3620467E0,1.8013153E0,0E0,2.3028972E0,0E0,0E0,3.6305866E0,1.3417983E0,0E0,0E0,0E0,0E0,0E0,0E0,0E0,0E0,0E0,0E0],"parents":[2147483647,0,0,1,1,2,2,3,3,4,4,5,5,6,6,7,7,8,8,10,10,13,13,14,14],"right_children":[2,4,6,8,10,12,14,16,18,-1,20,-1,-1,22,24,-1,-1,-1,-1,-1,-1,-1,-1,-1,-1],"split_conditions":[7E-1,1.4981779E3,-3.1174423E2,1.4832637E3,1.4832637E3,5E0,3.6666667E0,1.1E0,1E0,-3.2897253E-2,5.555556E-1,-4.351328E-2,1.0701736E-2,6E-1,1E0,3.9091554E-2,-8.452436E-3,-3.7939075E-2,1.8554107E-4,3.947551E-2,-1.5414613E-2,1.6093247E-3,1.3980808E-2,-3.8610823E-2,-1.904621E-3],"split_indices":[9,2,0,1,1,13,9,6,15,0,11,0,0,12,7,0,0,0,0,0,0,0,0,0,0],"split_type":[0,0,0,0,0,0,0,0,0,0,0,0,0,0,0,0,0,0,0,0,0,0,0,0,0],"sum_hessian":[7.6128845E2,7.1244995E1,6.9004346E2,6.047589E1,1.0769101E1,8.792353E0,6.812511E2,2.7904594E1,3.2571297E1,1.6630036E0,9.106097E0,7.6943274E0,1.098025E0,6.712779E2,9.973186E0,1.3946689E0,2.6509924E1,2.9140703E1,3.4305944E0,7.5512614E0,1.5548362E0,6.069759E2,6.430202E1,6.003832E0,3.9693534E0],"tree_param":{"num_deleted":"0","num_feature":"16","num_nodes":"25","size_leaf_vector":"1"}},{"base_weights":[-1.5047089E-2,-4.175747E-1,1.967347E-3,-7.661559E-1,-1.2302731E-1,1.9186834E-2,-3.8854724E-1,-8.7042236E-1,3.2656367E-3,-5.770355E-1,2.9008937E-1,6.080009E-1,5.2638743E-3,-5.0060576E-1,3.8621552E-2,-4.6040665E-2,-1.066745E-2,-4.4117756E-2,8.258364E-3,3.5632927E-2,-3.867331E-2,-2.3412831E-2,4.0787067E-2,-1.0033344E-2,2.0330385E-3,-1.0487666E-2,-3.7115842E-2],"categories":[],"categories_nodes":[],"categories_segments":[],"categories_sizes":[],"default_left":[0,0,0,0,0,0,0,0,0,0,0,0,0,0,0,0,0,0,0,0,0,0,0,0,0,0,0],"id":41,"left_children":[1,3,5,7,9,11,13,15,-1,17,19,21,23,25,-1,-1,-1,-1,-1,-1,-1,-1,-1,-1,-1,-1,-1],"loss_changes":[5.299235E0,3.0804043E0,5.0120955E0,1.3063078E0,3.7761724E0,5.8462315E0,4.6752615E0,1.2316036E-1,0E0,2.3614104E0,5.697992E0,4.256107E0,5.105558E0,1.8486209E0,0E0,0E0,0E0,0E0,0E0,0E0,0E0,0E0,0E0,0E0,0E0,0E0,0E0],"parents":[2147483647,0,0,1,1,2,2,3,3,4,4,5,5,6,6,7,7,9,9,10,10,11,11,12,12,13,13],"right_children":[2,4,6,8,10,12,14,16,-1,18,20,22,24,26,-1,-1,-1,-1,-1,-1,-1,-1,-1,-1,-1,-1,-1],"split_conditions":[-2.2527135E2,1.3813497E3,3E0,2.857143E-1,1.625E0,1.3693406E3,3.75E-1,1.4285715E0,3.2656367E-3,7.1428573E-1,-2.3699048E2,2.2222222E-1,9E-1,1E-1,3.8621552E-2,-4.6040665E-2,-1.066745E-2,-4.4117756E-2,8.258364E-3,3.5632927E-2,-3.867331E-2,-2.3412831E-2,4.0787067E-2,-1.0033344E-2,2.0330385E-3,-1.0487666E-2,-3.7115842E-2],"split_indices":[0,1,10,12,6,1,12,10,0,7,0,5,5,12,0,0,0,0,0,0,0,0,0,0,0,0,0],"split_type":[0,0,0,0,0,0,0,0,0,0,0,0,0,0,0,0,0,0,0,0,0,0,0,0,0,0,0],"sum_hessian":[7.720688E2,2.9878948E1,7.421898E2,1.2584347E1,1.7294601E1,7.122116E2,2.9978205E1,1.1119663E1,1.4646837E0,7.9559593E0,9.338642E0,1.4973325E1,6.972383E2,2.8117493E1,1.8607119E0,9.768444E0,1.3512198E0,5.436358E0,2.5196016E0,7.037438E0,2.3012042E0,2.1182208E0,1.28551035E1,1.0124065E2,5.959976E2,1.403308E1,1.4084414E1],"tree_param":{"num_deleted":"0","num_feature":"16","num_nodes":"27","size_leaf_vector":"1"}},{"base_weights":[3.5336815E-2,-3.7625045E-1,5.2544057E-2,-5.3644836E-1,3.120939E-1,2.401746E-1,1.2989652E-2,-6.0292614E-1,1.1540657E-1,-2.5324816E-1,4.8406478E-2,1.2737192E-1,6.245108E-1,-7.305089E-1,2.292667E-2,5.2472195E-3,-3.272383E-2,1.5222725E-2,-6.755333E-3,1.2851312E-2,-2.452506E-2,6.4160406E-5,2.5888804E-2,-2.2516793E-2,3.961822E-2,-1.2911103E-3,-5.0585266E-2,1.5412244E-3,-3.176411E-2],"categories":[],"categories_nodes":[],"categories_segments":[],"categories_sizes":[],"default_left":[0,0,0,0,0,0,0,0,0,0,0,0,0,0,0,0,0,0,0,0,0,0,0,0,0,0,0,0,0],"id":42,"left_children":[1,3,5,7,9,11,13,15,17,19,-1,21,23,25,27,-1,-1,-1,-1,-1,-1,-1,-1,-1,-1,-1,-1,-1,-1],"loss_changes":[5.438254E0,3.6507764E0,5.445387E0,1.2120323E0,2.8781784E0,5.420022E0,4.5177207E0,9.582491E-1,2.333558E-1,7.7319914E-1,0E0,4.954169E0,5.6964407E0,1.559053E0,3.1563E0,0E0,0E0,0E0,0E0,0E0,0E0,0E0,0E0,0E0,0E0,0E0,0E0,0E0,0E0],"parents":[2147483647,0,0,1,1,2,2,3,3,4,4,5,5,6,6,7,7,8,8,9,9,11,11,12,12,13,13,14,14],"right_children":[2,4,6,8,10,12,14,16,18,20,-1,22,24,26,28,-1,-1,-1,-1,-1,-1,-1,-1,-1,-1,-1,-1,-1,-1],"split_conditions":[-2.2527135E2,7.1428573E-1,-9.7633804E1,1.4285715E0,-2.6907254E2,-1.13893715E2,-9.422226E1,1E-1,1.5817145E3,3.3333334E-1,4.8406478E-2,2.2222222E-1,5.714286E-1,1.2222222E0,3.517264E2,5.2472195E-3,-3.272383E-2,1.5222725E-2,-6.755333E-3,1.2851312E-2,-2.452506E-2,6.4160406E-5,2.5888804E-2,-2.2516793E-2,3.961822E-2,-1.2911103E-3,-5.0585266E-2,1.5412244E-3,-3.176411E-2],"split_indices":[0,7,0,10,0,0,0,8,2,10,0,12,5,9,0,0,0,0,0,0,0,0,0,0,0,0,0,0,0],"split_type":[0,0,0,0,0,0,0,0,0,0,0,0,0,0,0,0,0,0,0,0,0,0,0,0,0,0,0,0,0],"sum_hessian":[7.6218036E2,2.9329802E1,7.328505E2,2.4061083E1,5.268718E0,1.2626952E2,6.0658105E2,2.1936533E1,2.1245494E0,3.3246455E0,1.9440721E0,9.916245E1,2.7107069E1,6.565588E0,6.0001544E2,1.3836161E0,2.0552917E1,1.0267417E0,1.0978076E0,1.0155112E0,2.3091345E0,7.609198E1,2.3070475E1,3.3204255E0,2.3786644E1,2.339778E0,4.22581E0,5.94314E2,5.701395E0],"tree_param":{"num_deleted":"0","num_feature":"16","num_nodes":"29","size_leaf_vector":"1"}},{"base_weights":[-1.2696738E-2,1.0415186E-2,-4.9326086E-1,-4.565756E-2,1.8086442E-1,-6.2931883E-1,-1.890335E-1,-1.955476E-1,6.8172845E-3,3.4014153E-1,-8.334827E-2,-6.876796E-1,-1.9005421E-1,-6.4148796E-1,2.9847848E-1,-5.8526145E-3,-2.4700774E-2,-3.1749438E-3,1.0104449E-2,2.0529998E-2,-4.130184E-3,3.4683838E-3,-2.5825432E-2,-3.9913256E-2,-1.188876E-2,-3.486685E-2,3.1988975E-2,-4.3863114E-2,1.589146E-2,-2.7061064E-2,3.225618E-2],"categories":[],"categories_nodes":[],"categories_segments":[],"categories_sizes":[],"default_left":[0,0,0,0,0,0,0,0,0,0,0,0,0,0,0,0,0,0,0,0,0,0,0,0,0,0,0,0,0,0,0],"id":43,"left_children":[1,3,5,7,9,11,13,15,17,19,21,23,25,27,29,-1,-1,-1,-1,-1,-1,-1,-1,-1,-1,-1,-1,-1,-1,-1,-1],"loss_changes":[8.4794035E0,6.9819517E0,1.2715778E0,4.3272805E0,7.6516385E0,4.0797806E-1,3.1479504E0,3.2552238E0,5.631863E0,3.4197474E0,4.6319695E0,7.2156334E-1,2.705043E0,2.0473878E0,2.6388533E0,0E0,0E0,0E0,0E0,0E0,0E0,0E0,0E0,0E0,0E0,0E0,0E0,0E0,0E0,0E0,0E0],"parents":[2147483647,0,0,1,1,2,2,3,3,4,4,5,5,6,6,7,7,8,8,9,9,10,10,11,11,12,12,13,13,14,14],"right_children":[2,4,6,8,10,12,14,16,18,20,22,24,26,28,30,-1,-1,-1,-1,-1,-1,-1,-1,-1,-1,-1,-1,-1,-1,-1,-1],"split_conditions":[2.7142856E0,6E-1,2.2E-1,1.4285715E-1,1.7142857E0,2E0,1E0,3E0,3E0,1.7406554E3,7.5E-1,3.4E0,1.25E-1,4.8333335E0,3.3333334E-1,-5.8526145E-3,-2.4700774E-2,-3.1749438E-3,1.0104449E-2,2.0529998E-2,-4.130184E-3,3.4683838E-3,-2.5825432E-2,-3.9913256E-2,-1.188876E-2,-3.486685E-2,3.1988975E-2,-4.3863114E-2,1.589146E-2,-2.7061064E-2,3.225618E-2],"split_indices":[10,3,4,4,9,13,13,13,13,1,7,6,4,10,9,0,0,0,0,0,0,0,0,0,0,0,0,0,0,0,0],"split_type":[0,0,0,0,0,0,0,0,0,0,0,0,0,0,0,0,0,0,0,0,0,0,0,0,0,0,0,0,0,0,0],"sum_hessian":[7.6125134E2,7.2772034E2,3.3530994E1,5.4840845E2,1.793119E2,2.2061625E1,1.1469372E1,1.4114621E2,4.072622E2,1.1160266E2,6.770924E1,1.8725468E1,3.3361561E0,5.7028546E0,5.7665167E0,1.1340866E2,2.7737553E1,3.0018103E2,1.0708117E2,9.569619E1,1.5906471E1,5.0991398E1,1.671785E1,1.4098613E1,4.6268554E0,2.2191033E0,1.1170527E0,4.6807537E0,1.0221009E0,1.4389325E0,4.3275843E0],"tree_param":{"num_deleted":"0","num_feature":"16","num_nodes":"31","size_leaf_vector":"1"}},{"base_weights":[5.8472534E-3,3.0879846E-2,-2.7095386E-1,7.6846555E-2,-1.412807E-1,-4.3436575E-1,2.282477E-1,-3.834334E-1,9.887162E-2,5.5183154E-1,-1.724656E-1,-5.152089E-1,5.7297528E-2,-1.13940716E-1,9.9679047E-1,1.2318311E-2,-2.777161E-2,8.076615E-3,-2.6434008E-3,-2.5090152E-2,4.4590455E-2,-2.1695111E-2,-4.9010916E-3,-1.285655E-2,-4.0248476E-2,2.7110863E-2,-2.1900712E-2,-1.3555107E-2,8.064488E-2],"categories":[],"categories_nodes":[],"categories_segments":[],"categories_sizes":[],"default_left":[0,0,0,0,0,0,0,0,0,0,0,0,0,0,0,0,0,0,0,0,0,0,0,0,0,0,0,0,0],"id":44,"left_children":[1,3,5,7,9,11,13,15,17,19,21,23,-1,25,27,-1,-1,-1,-1,-1,-1,-1,-1,-1,-1,-1,-1,-1,-1],"loss_changes":[5.274647E0,5.5383463E0,5.2991E0,5.6499643E0,3.332558E0,7.028533E0,4.523797E0,2.9677763E0,5.0303426E0,3.0752704E0,2.706953E0,3.1875763E0,0E0,3.078114E0,4.7598543E0,0E0,0E0,0E0,0E0,0E0,0E0,0E0,0E0,0E0,0E0,0E0,0E0,0E0,0E0],"parents":[2147483647,0,0,1,1,2,2,3,3,4,4,5,5,6,6,7,7,8,8,9,9,10,10,11,11,13,13,14,14],"right_children":[2,4,6,8,10,12,14,16,18,20,22,24,-1,26,28,-1,-1,-1,-1,-1,-1,-1,-1,-1,-1,-1,-1,-1,-1],"split_conditions":[1.6136029E2,1E0,2E0,3.75E-1,1.4077458E3,1.5837324E3,2.5506413E2,6.25E-1,1.75E0,5.555556E-1,2E0,1.4328905E3,5.7297528E-2,1.1111111E-1,1.4403407E3,1.2318311E-2,-2.777161E-2,8.076615E-3,-2.6434008E-3,-2.5090152E-2,4.4590455E-2,-2.1695111E-2,-4.9010916E-3,-1.285655E-2,-4.0248476E-2,2.7110863E-2,-2.1900712E-2,-1.3555107E-2,8.064488E-2],"split_indices":[0,15,14,5,2,2,0,10,9,9,14,2,0,8,2,0,0,0,0,0,0,0,0,0,0,0,0,0,0],"split_type":[0,0,0,0,0,0,0,0,0,0,0,0,0,0,0,0,0,0,0,0,0,0,0,0,0,0,0,0,0],"sum_hessian":[7.5792554E2,6.9628906E2,6.163645E1,5.5021313E2,1.4607594E2,4.6582615E1,1.5053837E1,2.4002167E1,5.2621094E2,5.211112E0,1.4086484E2,4.5277367E1,1.3052475E0,1.1300142E1,3.7536948E0,5.0097284E0,1.8992437E1,3.7235193E2,1.5385902E2,1.0970935E0,4.1140184E0,2.9615667E1,1.1124917E2,2.5445333E1,1.9832033E1,3.4021156E0,7.898027E0,1.502222E0,2.2514727E0],"tree_param":{"num_deleted":"0","num_feature":"16","num_nodes":"29","size_leaf_vector":"1"}},{"base_weights":[6.275859E-3,3.397194E-2,-3.0767524E-1,-4.1452304E-2,4.063276E-2,-4.204273E-1,6.646443E-2,-4.7575768E-2,1.07131846E-1,4.1622722E-1,-5.199629E-1,4.8904133E-1,-4.979225E-1,-3.7272181E-3,3.777028E-2,8.419555E-3,-2.295623E-3,4.6501774E-2,-3.024681E-2,-4.2468604E-2,-1.3672349E-2,2.4936185E-4,7.314643E-2,-3.3687823E-2,1.1057719E-2],"categories":[],"categories_nodes":[],"categories_segments":[],"categories_sizes":[],"default_left":[0,0,0,0,0,0,0,0,0,0,0,0,0,0,0,0,0,0,0,0,0,0,0,0,0],"id":45,"left_children":[1,3,5,-1,7,9,11,13,15,17,19,21,23,-1,-1,-1,-1,-1,-1,-1,-1,-1,-1,-1,-1],"loss_changes":[6.6215653E0,4.071419E0,2.6462693E0,0E0,4.0876017E0,4.292327E0,4.0838714E0,6.5813227E0,3.733986E0,3.9388452E0,3.1633816E0,4.5489655E0,1.1615561E0,0E0,0E0,0E0,0E0,0E0,0E0,0E0,0E0,0E0,0E0,0E0,0E0],"parents":[2147483647,0,0,1,1,2,2,4,4,5,5,6,6,7,7,8,8,9,9,10,10,11,11,12,12],"right_children":[2,4,6,-1,8,10,12,14,16,18,20,22,24,-1,-1,-1,-1,-1,-1,-1,-1,-1,-1,-1,-1],"split_conditions":[1.6136029E2,-3.8786975E2,2E0,-4.1452304E-2,1.5321395E3,4.2857143E-1,1.5312637E3,1.6227634E3,2E0,1.1111112E0,2.1093103E2,1.5150466E3,2E0,-3.7272181E-3,3.777028E-2,8.419555E-3,-2.295623E-3,4.6501774E-2,-3.024681E-2,-4.2468604E-2,-1.3672349E-2,2.4936185E-4,7.314643E-2,-3.3687823E-2,1.1057719E-2],"split_indices":[0,0,14,0,2,6,2,1,14,9,0,2,9,0,0,0,0,0,0,0,0,0,0,0,0],"split_type":[0,0,0,0,0,0,0,0,0,0,0,0,0,0,0,0,0,0,0,0,0,0,0,0,0],"sum_hessian":[7.582152E2,6.979787E2,6.023647E1,3.9273498E0,6.940514E2,4.6144596E1,1.4091876E1,2.9851257E2,3.9553882E2,4.39867E0,4.1745926E1,8.172832E0,5.9190445E0,2.9012915E2,8.383409E0,2.8236557E2,1.13173256E2,3.0153346E0,1.3833357E0,1.629856E1,2.5447365E1,6.466466E0,1.7063653E0,4.832022E0,1.0870225E0],"tree_param":{"num_deleted":"0","num_feature":"16","num_nodes":"25","size_leaf_vector":"1"}},{"base_weights":[-6.4310078E-3,-7.3561174E-1,-8.525172E-5,-4.143013E-2,-5.179267E-3,-1.1629759E-1,3.583207E-2,6.800474E-2,-2.3147915E-1,2.9729974E-2,4.5663994E-2,-2.2896675E-2,9.04226E-3,1.1214541E-2,-1.6829835E-2,1.9710243E-2,7.538165E-4],"categories":[],"categories_nodes":[],"categories_segments":[],"categories_sizes":[],"default_left":[0,0,0,0,0,0,0,0,0,0,0,0,0,0,0,0,0],"id":46,"left_children":[1,3,5,-1,-1,7,9,11,13,15,-1,-1,-1,-1,-1,-1,-1],"loss_changes":[3.5464227E0,2.5988007E-1,3.1840987E0,0E0,0E0,3.8468704E0,3.07939E0,4.303853E0,5.439604E0,3.0901895E0,0E0,0E0,0E0,0E0,0E0,0E0,0E0],"parents":[2147483647,0,0,1,1,2,2,5,5,6,6,7,7,8,8,9,9],"right_children":[2,4,6,-1,-1,8,10,12,14,16,-1,-1,-1,-1,-1,-1,-1],"split_conditions":[-3.423943E2,4E0,1.4855854E3,-4.143013E-2,-5.179267E-3,1.1111111E-1,1.8560531E3,1.3701602E3,1.396676E3,8E-1,4.5663994E-2,-2.2896675E-2,9.04226E-3,1.1214541E-2,-1.6829835E-2,1.9710243E-2,7.538165E-4],"split_indices":[0,13,2,0,0,12,1,2,2,9,0,0,0,0,0,0,0],"split_type":[0,0,0,0,0,0,0,0,0,0,0,0,0,0,0,0,0],"sum_hessian":[7.6494934E2,5.112369E0,7.59837E2,4.049956E0,1.0624133E0,1.7860251E2,5.812345E2,6.892686E1,1.0967566E2,5.787604E2,2.4740891E0,1.1365592E1,5.7561264E1,2.0235922E1,8.943974E1,2.0867916E1,5.5789246E2],"tree_param":{"num_deleted":"0","num_feature":"16","num_nodes":"17","size_leaf_vector":"1"}},{"base_weights":[-1.5482172E-2,3.185046E-2,-1.4350218E-1,2.9718953E-1,-2.0782647E-3,-4.762626E-1,-7.332813E-2,-5.834082E-1,3.7760544E-1,8.077367E-2,-1.115533E-1,-8.545752E-1,-3.068252E-1,-1.7444097E-1,2.2096607E-1,-5.9461957E-3,-3.2079708E-2,6.6357213E-3,3.4440827E-2,7.1899034E-3,-1.0395429E-2,-1.8490113E-2,4.990547E-4,-4.5577463E-2,-1.0672434E-2,1.8825872E-2,-2.3170514E-2,-1.43774E-2,5.561033E-3,1.3127329E-3,3.74833E-2],"categories":[],"categories_nodes":[],"categories_segments":[],"categories_sizes":[],"default_left":[0,0,0,0,0,0,0,0,0,0,0,0,0,0,0,0,0,0,0,0,0,0,0,0,0,0,0,0,0,0,0],"id":47,"left_children":[1,3,5,7,9,11,13,15,17,19,21,23,25,27,29,-1,-1,-1,-1,-1,-1,-1,-1,-1,-1,-1,-1,-1,-1,-1,-1],"loss_changes":[4.674518E0,5.0748286E0,4.8092914E0,4.855996E0,4.559469E0,1.9134302E0,5.2269616E0,4.6006203E-2,4.3952837E0,5.2511954E0,6.801841E0,8.407259E-2,3.1716025E0,4.2524867E0,4.6115146E0,0E0,0E0,0E0,0E0,0E0,0E0,0E0,0E0,0E0,0E0,0E0,0E0,0E0,0E0,0E0,0E0],"parents":[2147483647,0,0,1,1,2,2,3,3,4,4,5,5,6,6,7,7,8,8,9,9,10,10,11,11,12,12,13,13,14,14],